const model = {"type":"LSTM","options":{"inputSize":33,"inputRange":33,"hiddenLayers":[20,20],"outputSize":33,"decayRate":0.999,"smoothEps":1e-8,"regc":0.000001,"clipval":5,"maxPredictionLength":100,"dataFormatter":{"values":["my message is that we will be watching you.","this is all wrong. i shouldnt be up here. i should be back in school on the other side of the ocean.","yet you all come to us young people for hope. how dare you!","you have stolen my dreams and my childhood with your empty words. and yet im one of the lucky ones.","people are suffering. people are dying. entire ecosystems are collapsing.","we are in the beginning of a mass extinction, and all you can talk about is money and fairy tales of eternal economic growth. how dare you!","for more than 30 years, the science has been crystal clear.","fifty percent may be acceptable to you. but those numbers do not include tipping points.","how dare you pretend that this can be solved with just business as usual and some technical solutions?","there will not be any solutions or plans presented in line with these figures here today, because these numbers are too uncomfortable.","you are failing us. but the young people are starting to understand your betrayal.","and if you choose to fail us, i say: we will never forgive you.","the eyes of all future generations are upon you.","right here, right now is where we draw the line. the world is waking up."],"indexTable":{"0":28,"3":27,"m":0,"y":1," ":2,"e":3,"s":4,"a":5,"g":6,"i":7,"t":8,"h":9,"w":10,"l":11,"b":12,"c":13,"n":14,"o":15,"u":16,".":17,"r":18,"d":19,"p":20,"k":21,"f":22,"!":23,"v":24,"x":25,",":26,"j":29,"?":30,":":31,"unrecognized":32},"characterTable":{"0":"m","1":"y","2":" ","3":"e","4":"s","5":"a","6":"g","7":"i","8":"t","9":"h","10":"w","11":"l","12":"b","13":"c","14":"n","15":"o","16":"u","17":".","18":"r","19":"d","20":"p","21":"k","22":"f","23":"!","24":"v","25":"x","26":",","27":"3","28":"0","29":"j","30":"?","31":":","32":null},"characters":["m","y"," ","e","s","a","g","i","t","h","w","l","b","c","n","o","u",".","r","d","p","k","f","!","v","x",",","3","0","j","?",":","unrecognized"],"specialIndexes":[32]}},"input":{"rows":34,"columns":33,"weights":{"0":-1.0381537675857544,"1":-0.482227623462677,"2":-0.7163033485412598,"3":-0.41685953736305237,"4":0.6464356780052185,"5":0.04114114120602608,"6":0.926080584526062,"7":-1.9323437213897705,"8":-1.2330471277236938,"9":0.32793188095092773,"10":1.4191628694534302,"11":-0.0115182064473629,"12":0.4410766661167145,"13":-0.2837408185005188,"14":-0.9570749402046204,"15":0.5605219006538391,"16":0.11138413101434708,"17":-0.8347238302230835,"18":0.19085419178009033,"19":-0.9333182573318481,"20":0.6290492415428162,"21":1.144715666770935,"22":-0.18001626431941986,"23":-0.40701600909233093,"24":-0.35322338342666626,"25":-0.3251611292362213,"26":-2.1762382984161377,"27":-0.997386634349823,"28":1.2927906513214111,"29":0.12157614529132843,"30":-0.09542247653007507,"31":-1.6854277849197388,"32":-0.27229151129722595,"33":0.9778106808662415,"34":-1.3590660095214844,"35":-4.356818675994873,"36":0.5882762670516968,"37":-2.354119062423706,"38":-0.4040471911430359,"39":-0.6145342588424683,"40":0.26785141229629517,"41":-1.33061683177948,"42":1.1287572383880615,"43":-1.878593921661377,"44":-0.4655892550945282,"45":2.2610039710998535,"46":-1.0438200235366821,"47":-1.4708174467086792,"48":1.286417841911316,"49":-0.6168100833892822,"50":1.7066622972488403,"51":1.2641782760620117,"52":0.0813583955168724,"53":0.048627398908138275,"54":2.086578845977783,"55":-0.2920716106891632,"56":0.17430754005908966,"57":1.0209987163543701,"58":-1.0846712589263916,"59":-2.3890886306762695,"60":1.6223641633987427,"61":0.6771700382232666,"62":-0.5440806746482849,"63":-1.446889877319336,"64":0.8940925002098083,"65":0.8654226660728455,"66":0.2413710355758667,"67":-1.6910713911056519,"68":-1.331204891204834,"69":0.8066582679748535,"70":1.3681812286376953,"71":-0.8129609227180481,"72":0.7465394735336304,"73":-0.6946443915367126,"74":0.20302888751029968,"75":1.3298217058181763,"76":2.7526614665985107,"77":-0.6575367450714111,"78":1.1567398309707642,"79":0.10824200510978699,"80":0.4138834476470947,"81":0.21770958602428436,"82":-0.24548114836215973,"83":-2.0014336109161377,"84":0.795059859752655,"85":-0.0600128211081028,"86":1.1987884044647217,"87":0.4325330853462219,"88":0.04699943587183952,"89":0.5907452702522278,"90":3.096604108810425,"91":1.608104944229126,"92":2.1108922958374023,"93":0.7103906869888306,"94":-0.09749630093574524,"95":-0.6881477236747742,"96":-0.8999296426773071,"97":-0.17856943607330322,"98":0.48131394386291504,"99":-1.1610504388809204,"100":-0.27113282680511475,"101":-1.176642894744873,"102":-1.6381688117980957,"103":0.4788922667503357,"104":-0.6344441771507263,"105":-0.4838545322418213,"106":-1.8437787294387817,"107":-0.2445833832025528,"108":0.4596197307109833,"109":-0.017211465165019035,"110":0.8833014369010925,"111":-0.8433747291564941,"112":-1.9056180715560913,"113":0.2403751015663147,"114":0.44865408539772034,"115":0.011974254623055458,"116":-3.053091049194336,"117":0.9954632520675659,"118":-0.543843686580658,"119":0.24601580202579498,"120":1.041549801826477,"121":-0.23113544285297394,"122":0.4514142572879791,"123":1.0433992147445679,"124":2.8476946353912354,"125":1.4376055002212524,"126":1.600759506225586,"127":-0.9753990769386292,"128":-0.5617090463638306,"129":-0.7458716630935669,"130":-0.7727317810058594,"131":-0.9940773248672485,"132":-0.19186201691627502,"133":-3.5697410106658936,"134":-2.152909994125366,"135":1.3598896265029907,"136":-0.9461061954498291,"137":-0.4233221709728241,"138":-0.6072112321853638,"139":-4.9706130027771,"140":0.06712594628334045,"141":-1.880716323852539,"142":-1.592331886291504,"143":-0.44847431778907776,"144":1.5126774311065674,"145":2.8519253730773926,"146":-1.2729040384292603,"147":-2.566014289855957,"148":-0.7226902842521667,"149":0.2558155059814453,"150":3.309227705001831,"151":-3.552126884460449,"152":1.243466854095459,"153":-2.9928770065307617,"154":1.035965085029602,"155":1.2466458082199097,"156":-0.1192648634314537,"157":-0.19471146166324615,"158":1.5849645137786865,"159":-4.4586873054504395,"160":-3.875410795211792,"161":-0.013656511902809143,"162":0.8486457467079163,"163":-0.2065662145614624,"164":2.2828476428985596,"165":-0.008584177121520042,"166":-0.8354800343513489,"167":-0.9419862627983093,"168":0.8247480392456055,"169":-1.1727468967437744,"170":-0.35289275646209717,"171":-0.46601277589797974,"172":-0.5167945027351379,"173":2.6605944633483887,"174":0.3748742938041687,"175":-0.4065522849559784,"176":0.3016776442527771,"177":0.45576566457748413,"178":0.03587520122528076,"179":0.10202356427907944,"180":0.11665622144937515,"181":0.1640394628047943,"182":-0.34036412835121155,"183":-0.16590315103530884,"184":0.5202656388282776,"185":-0.00924576073884964,"186":-0.015262692235410213,"187":-0.10028067231178284,"188":-0.26780229806900024,"189":2.3449254035949707,"190":2.649595022201538,"191":0.7275227308273315,"192":1.6747691631317139,"193":-4.428081512451172,"194":-0.5567939281463623,"195":1.0463780164718628,"196":0.8023002743721008,"197":0.8320289850234985,"198":0.7897056937217712,"199":1.6402223110198975,"200":0.20153068006038666,"201":1.57986319065094,"202":-1.2679102420806885,"203":0.9760909676551819,"204":1.4085122346878052,"205":1.679976463317871,"206":-0.7917749881744385,"207":0.1712687462568283,"208":-0.008616885170340538,"209":0.12831760942935944,"210":0.5796424150466919,"211":-0.42691099643707275,"212":-0.3827960193157196,"213":0.2996649742126465,"214":0.38073575496673584,"215":1.6187660694122314,"216":0.1096881702542305,"217":-0.41810017824172974,"218":0.20650063455104828,"219":0.9313196539878845,"220":0.35388171672821045,"221":-0.9897053241729736,"222":1.6887214183807373,"223":1.3139725923538208,"224":0.40422508120536804,"225":1.6818182468414307,"226":-0.07402629405260086,"227":0.8827438354492188,"228":0.15816651284694672,"229":-0.3463355600833893,"230":-0.4424537718296051,"231":0.5873521566390991,"232":-0.7840010523796082,"233":-1.4751662015914917,"234":0.44184282422065735,"235":2.3911702632904053,"236":-2.4779369831085205,"237":-1.3793452978134155,"238":-4.275269508361816,"239":0.236701101064682,"240":-0.7988933324813843,"241":-0.6451188921928406,"242":0.10519780963659286,"243":-0.7362606525421143,"244":0.23651759326457977,"245":0.8856551647186279,"246":0.8306605219841003,"247":1.4911279678344727,"248":-1.3218694925308228,"249":-0.2290848046541214,"250":0.4395383298397064,"251":0.8078415393829346,"252":-0.6517242193222046,"253":1.087561011314392,"254":-0.5109677910804749,"255":1.246425747871399,"256":1.4125036001205444,"257":0.8135983347892761,"258":-0.2950334846973419,"259":-3.5497119426727295,"260":-2.434023857116699,"261":2.4063520431518555,"262":1.7301526069641113,"263":-1.1381207704544067,"264":-0.07642121613025665,"265":-0.6547905206680298,"266":-1.1821205615997314,"267":0.09286821633577347,"268":0.5640432834625244,"269":-0.8028271794319153,"270":-0.9999269843101501,"271":-1.9016697406768799,"272":-0.11780285090208054,"273":-0.5575026869773865,"274":-0.5787758827209473,"275":0.2269114851951599,"276":0.0739966630935669,"277":-0.19494016468524933,"278":0.15907010436058044,"279":0.1312110275030136,"280":0.08809765428304672,"281":-1.2416777610778809,"282":1.5979640483856201,"283":-1.5068305730819702,"284":0.046902451664209366,"285":0.5207520723342896,"286":-0.28944194316864014,"287":0.4378435015678406,"288":2.134718894958496,"289":1.8353760242462158,"290":1.7234182357788086,"291":0.17823560535907745,"292":-2.9749107360839844,"293":0.3656906485557556,"294":0.10194002836942673,"295":-0.23182089626789093,"296":0.3852921426296234,"297":2.281229019165039,"298":-1.7305268049240112,"299":1.4018561840057373,"300":-0.0035505774430930614,"301":-3.1946332454681396,"302":0.9151471257209778,"303":1.2000775337219238,"304":1.5674920082092285,"305":1.777224063873291,"306":-0.48570892214775085,"307":-0.9525495171546936,"308":-0.3691713511943817,"309":-2.7788796424865723,"310":0.02328992635011673,"311":-0.8097006678581238,"312":0.32173168659210205,"313":0.047957584261894226,"314":1.568083643913269,"315":1.2206079959869385,"316":-1.0453438758850098,"317":1.3914496898651123,"318":0.8392574787139893,"319":-0.7681083679199219,"320":0.57159024477005,"321":0.0038207266479730606,"322":-1.273792028427124,"323":-0.42279791831970215,"324":-0.46664169430732727,"325":2.7863874435424805,"326":-0.13931000232696533,"327":-2.078227996826172,"328":0.1602822095155716,"329":-2.554556131362915,"330":0.8319228887557983,"331":-3.0505313873291016,"332":1.6353527307510376,"333":1.0148173570632935,"334":3.7715389728546143,"335":-0.4359533190727234,"336":-1.964784860610962,"337":-0.6565914750099182,"338":0.6159819960594177,"339":-0.9758082032203674,"340":-1.4084224700927734,"341":0.4079097509384155,"342":0.5717967748641968,"343":-0.6000816822052002,"344":0.10113722831010818,"345":-1.7197377681732178,"346":-1.7391189336776733,"347":-1.9319701194763184,"348":4.758713245391846,"349":-5.227331638336182,"350":-0.6398081183433533,"351":-0.3436623215675354,"352":1.5703996419906616,"353":-2.768648386001587,"354":0.7756747603416443,"355":-0.16242651641368866,"356":1.3179123401641846,"357":1.4878802299499512,"358":-3.509568452835083,"359":1.2189265489578247,"360":-0.8627111315727234,"361":0.13848190009593964,"362":-0.3732161223888397,"363":0.05196385085582733,"364":3.603696584701538,"365":-2.0565669536590576,"366":0.6257961392402649,"367":2.720506191253662,"368":-0.7716984748840332,"369":-0.45978060364723206,"370":-1.9504214525222778,"371":1.8848751783370972,"372":0.9086986780166626,"373":-2.07572865486145,"374":1.1585215330123901,"375":-1.2124602794647217,"376":0.19971168041229248,"377":-0.2671729326248169,"378":2.78236722946167,"379":1.8900028467178345,"380":-1.5628399848937988,"381":-1.302370309829712,"382":2.6890931129455566,"383":-0.10621504485607147,"384":2.781374931335449,"385":-0.26086512207984924,"386":-0.5785819292068481,"387":3.0023910999298096,"388":3.031255006790161,"389":0.44386178255081177,"390":1.2398380041122437,"391":-1.909531831741333,"392":-2.864898443222046,"393":2.121829032897949,"394":1.364946961402893,"395":0.23830686509609222,"396":0.9324030876159668,"397":-0.018465444445610046,"398":-1.1775026321411133,"399":0.8953300714492798,"400":2.561129570007324,"401":-0.9722360372543335,"402":-0.8005321025848389,"403":-4.037522315979004,"404":-1.0123229026794434,"405":-0.8162466883659363,"406":-1.6354846954345703,"407":0.19202901422977448,"408":1.341869831085205,"409":-0.1438157558441162,"410":0.35249438881874084,"411":-0.9944524168968201,"412":0.5706847906112671,"413":-0.8911619782447815,"414":-0.5117427110671997,"415":0.9030600786209106,"416":0.5571688413619995,"417":0.09951799362897873,"418":0.5600892305374146,"419":-1.5578923225402832,"420":1.5398989915847778,"421":0.9008493423461914,"422":-0.11587777733802795,"423":0.4734436273574829,"424":-2.7633886337280273,"425":-0.828264594078064,"426":1.480529546737671,"427":1.9276890754699707,"428":1.7153550386428833,"429":1.8408653736114502,"430":1.8306206464767456,"431":0.8585773706436157,"432":2.1660711765289307,"433":4.434088230133057,"434":-4.295990943908691,"435":2.727066993713379,"436":-1.5392379760742188,"437":1.329250693321228,"438":1.401331901550293,"439":0.49345189332962036,"440":2.3565750122070312,"441":-1.719175934791565,"442":1.1617084741592407,"443":0.5793483257293701,"444":0.4007962644100189,"445":2.6438651084899902,"446":-2.1424977779388428,"447":0.18977411091327667,"448":0.0800275132060051,"449":2.9057648181915283,"450":1.7658175230026245,"451":0.4289444088935852,"452":-3.1255500316619873,"453":1.9950870275497437,"454":1.5111420154571533,"455":2.5114428997039795,"456":4.340419292449951,"457":-1.6916234493255615,"458":0.6223344802856445,"459":0.608013391494751,"460":3.539109230041504,"461":-0.522377073764801,"462":-0.940502405166626,"463":-0.791671097278595,"464":-0.3961673378944397,"465":-4.158193588256836,"466":-0.6365618109703064,"467":-0.0891132801771164,"468":-1.2081637382507324,"469":1.1453912258148193,"470":0.7249751687049866,"471":1.6122936010360718,"472":0.550919234752655,"473":0.8480334281921387,"474":-2.7105774879455566,"475":-0.5939766764640808,"476":-0.5336534380912781,"477":0.8351640701293945,"478":-0.15392881631851196,"479":-0.4434797465801239,"480":-0.6358410120010376,"481":1.6674394607543945,"482":-2.2524664402008057,"483":-0.6030842661857605,"484":-1.1223759651184082,"485":0.4357902407646179,"486":1.016076922416687,"487":0.429919958114624,"488":0.6401273012161255,"489":-0.7613822817802429,"490":0.8051057457923889,"491":0.37611544132232666,"492":-1.3893942832946777,"493":-0.06041215732693672,"494":-1.1326994895935059,"495":-0.12337766587734222,"496":-3.746516227722168,"497":-1.223129391670227,"498":0.2548541724681854,"499":4.673232078552246,"500":-2.9482462406158447,"501":-2.0477957725524902,"502":-3.571030616760254,"503":-0.628178596496582,"504":-0.7207603454589844,"505":-0.7358919978141785,"506":0.26153844594955444,"507":2.0620551109313965,"508":-0.3991941511631012,"509":1.0452722311019897,"510":-1.7499134540557861,"511":-1.5944416522979736,"512":-4.5548996925354,"513":1.1704906225204468,"514":-1.4098392724990845,"515":-0.4516400098800659,"516":-1.703879952430725,"517":1.294925332069397,"518":-1.8321943283081055,"519":0.9759681224822998,"520":1.333449363708496,"521":2.3026554584503174,"522":1.4200100898742676,"523":-2.7326557636260986,"524":-0.5109795928001404,"525":2.9833528995513916,"526":-0.00023721098841633648,"527":1.1765798330307007,"528":0.8572608828544617,"529":1.0844166278839111,"530":-1.054605484008789,"531":0.21061275899410248,"532":-4.664000988006592,"533":0.12785759568214417,"534":0.3324473798274994,"535":0.040192171931266785,"536":0.09980232268571854,"537":1.098582148551941,"538":0.9624100923538208,"539":0.02497965097427368,"540":0.8465298414230347,"541":-0.9152400493621826,"542":1.3520820140838623,"543":-0.12664543092250824,"544":0.08992557227611542,"545":-0.8178113102912903,"546":-2.3636133670806885,"547":4.102457046508789,"548":0.6118820309638977,"549":0.9346564412117004,"550":-0.006390789523720741,"551":1.082181453704834,"552":2.261929750442505,"553":2.405161142349243,"554":-0.13047721982002258,"555":0.6628996133804321,"556":-0.3022731840610504,"557":-1.5125309228897095,"558":0.03293454647064209,"559":0.6457902789115906,"560":0.5925224423408508,"561":2.413611650466919,"562":0.5244373083114624,"563":-0.048854123800992966,"564":3.1579668521881104,"565":0.007774364203214645,"566":0.5682305097579956,"567":0.8720332980155945,"568":0.18528230488300323,"569":-0.08341578394174576,"570":0.9285346865653992,"571":0.22173796594142914,"572":0.07161274552345276,"573":0.3433845639228821,"574":-0.760725200176239,"575":-0.16327117383480072,"576":-0.026910245418548584,"577":1.2863733768463135,"578":0.045841868966817856,"579":-0.15320338308811188,"580":0.43898531794548035,"581":2.185781955718994,"582":0.2920858860015869,"583":0.28711190819740295,"584":-1.184577226638794,"585":3.246845245361328,"586":1.359780192375183,"587":1.442065954208374,"588":2.977170944213867,"589":0.022024482488632202,"590":-1.4122753143310547,"591":0.4974989593029022,"592":1.0775269269943237,"593":1.1713457107543945,"594":0.6123808026313782,"595":-0.09855953603982925,"596":0.8015658259391785,"597":1.792602300643921,"598":3.908217430114746,"599":-0.4887217581272125,"600":0.45478251576423645,"601":0.9168323278427124,"602":1.5807602405548096,"603":1.7291806936264038,"604":0.02285384014248848,"605":0.6708179116249084,"606":1.843685269355774,"607":3.409450054168701,"608":-0.00020391718135215342,"609":-0.43764543533325195,"610":-0.39157888293266296,"611":0.049836043268442154,"612":-0.670063316822052,"613":-0.4258463680744171,"614":-0.1786089539527893,"615":0.9895635843276978,"616":0.7071747779846191,"617":-1.9102903604507446,"618":0.818286120891571,"619":-0.3111545741558075,"620":1.7267087697982788,"621":0.39117270708084106,"622":-2.8390095233917236,"623":1.9141616821289062,"624":2.1696438789367676,"625":-0.058617085218429565,"626":1.8145508766174316,"627":0.04637741297483444,"628":-1.0252493619918823,"629":-0.7347301244735718,"630":-0.5140312314033508,"631":-3.452906608581543,"632":0.15315453708171844,"633":1.2778794765472412,"634":-0.2758530378341675,"635":0.8047984838485718,"636":-0.4192309081554413,"637":-0.8355298042297363,"638":-0.19428452849388123,"639":-1.4400454759597778,"640":-0.3990672826766968,"641":0.2832752764225006,"642":-0.13207031786441803,"643":0.039221663028001785,"644":0.20748741924762726,"645":0.644546627998352,"646":-0.2764314115047455,"647":1.3693403005599976,"648":-0.28855013847351074,"649":-0.5012465715408325,"650":1.3578073978424072,"651":0.8015486598014832,"652":0.6313547492027283,"653":0.4077386260032654,"654":-0.8818766474723816,"655":2.4052882194519043,"656":0.02556898631155491,"657":-1.4660100936889648,"658":-0.6571804285049438,"659":-0.3937985599040985,"660":1.493300437927246,"661":-2.058270215988159,"662":-1.929107904434204,"663":3.1573569774627686,"664":0.34394311904907227,"665":-1.6737170219421387,"666":-1.1145099401474,"667":-2.558485507965088,"668":-0.08786682784557343,"669":0.5245466232299805,"670":-1.728867530822754,"671":-0.24195300042629242,"672":1.66891348361969,"673":0.6433907151222229,"674":-0.6261664032936096,"675":0.3398500084877014,"676":0.9718725085258484,"677":1.5025051832199097,"678":0.6006560325622559,"679":-0.016810191795229912,"680":1.8429861068725586,"681":0.8338642120361328,"682":0.7023364901542664,"683":-1.6050390005111694,"684":2.216870069503784,"685":-0.017768077552318573,"686":-0.8337999582290649,"687":1.3509459495544434,"688":-3.345630645751953,"689":-2.2697839736938477,"690":1.2661277055740356,"691":2.6049654483795166,"692":1.4633816480636597,"693":2.1513359546661377,"694":-0.7542945742607117,"695":-2.3062548637390137,"696":1.9644830226898193,"697":0.9261347055435181,"698":-3.62619686126709,"699":-2.0264313220977783,"700":-3.638352394104004,"701":-0.35278722643852234,"702":-1.6526645421981812,"703":-1.438995599746704,"704":0.9467974901199341,"705":0.98472660779953,"706":1.138210654258728,"707":-0.8416328430175781,"708":0.30298128724098206,"709":0.3075551688671112,"710":-0.5074061155319214,"711":2.421640396118164,"712":-2.186762571334839,"713":1.5450495481491089,"714":-0.5517028570175171,"715":2.107635498046875,"716":0.494184672832489,"717":1.8393186330795288,"718":1.7935662269592285,"719":1.5165700912475586,"720":0.09226994216442108,"721":-2.3245296478271484,"722":-2.367581367492676,"723":1.3194091320037842,"724":-0.4333917796611786,"725":-0.38813725113868713,"726":0.7276538610458374,"727":0.11693026125431061,"728":-2.456087589263916,"729":-0.23606085777282715,"730":6.046507358551025,"731":-1.4494333267211914,"732":-3.015795946121216,"733":-1.1276003122329712,"734":-0.7718930840492249,"735":1.3541059494018555,"736":2.912034749984741,"737":2.218874216079712,"738":0.6503759026527405,"739":1.7487304210662842,"740":-0.4563065469264984,"741":0.6211560964584351,"742":-2.8241074085235596,"743":0.4706483781337738,"744":-1.7990710735321045,"745":1.3075227737426758,"746":-2.2626287937164307,"747":-1.4041006565093994,"748":-0.061496347188949585,"749":-0.48800548911094666,"750":2.5676889419555664,"751":3.13889479637146,"752":4.072103023529053,"753":1.501160740852356,"754":-9.157976150512695,"755":1.9194488525390625,"756":3.8168506622314453,"757":-1.5755568742752075,"758":3.0064454078674316,"759":-0.6389778852462769,"760":0.26575297117233276,"761":-1.7421046495437622,"762":-0.12288674712181091,"763":0.22072109580039978,"764":-0.7616716027259827,"765":-0.04041539505124092,"766":-2.5706496238708496,"767":0.7927991151809692,"768":0.7881394624710083,"769":-1.2012603282928467,"770":-0.22212038934230804,"771":0.3432244062423706,"772":1.0896965265274048,"773":0.35915642976760864,"774":0.6083607077598572,"775":1.1858168840408325,"776":-0.011845527216792107,"777":-0.3143150806427002,"778":0.7420467138290405,"779":1.5621668100357056,"780":2.1774284839630127,"781":-0.060683947056531906,"782":0.4829707741737366,"783":0.3219580352306366,"784":0.5486693978309631,"785":0.4082384705543518,"786":0.7470239996910095,"787":-2.885791063308716,"788":-0.7925719022750854,"789":1.8447729349136353,"790":0.8756493926048279,"791":0.0020929137244820595,"792":-0.36495789885520935,"793":5.578087329864502,"794":0.260360449552536,"795":-0.7157931327819824,"796":2.669452428817749,"797":-0.32735809683799744,"798":-2.5893564224243164,"799":3.749335765838623,"800":-3.549452781677246,"801":-1.7851845026016235,"802":-2.367354393005371,"803":-0.9649185538291931,"804":1.0442466735839844,"805":-1.391463279724121,"806":1.1017423868179321,"807":0.31516939401626587,"808":-3.6121106147766113,"809":1.4376959800720215,"810":-1.7897697687149048,"811":1.835746169090271,"812":-2.5858702659606934,"813":-6.386910438537598,"814":0.34207528829574585,"815":1.1494457721710205,"816":-1.696381688117981,"817":1.197148084640503,"818":3.2528131008148193,"819":0.4117586314678192,"820":-0.8373894691467285,"821":2.63874888420105,"822":1.842700481414795,"823":0.7372907996177673,"824":2.4281182289123535,"825":2.475390911102295,"826":1.9230806827545166,"827":1.1993708610534668,"828":3.7649378776550293,"829":-1.238059163093567,"830":-0.7640300393104553,"831":0.7515891790390015,"832":-1.1543632745742798,"833":1.2860251665115356,"834":0.1194518506526947,"835":-0.7376236319541931,"836":0.5585729479789734,"837":1.4542608261108398,"838":2.0067381858825684,"839":-0.34730851650238037,"840":-0.5886842608451843,"841":2.4932868480682373,"842":-0.059737853705883026,"843":-1.2010183334350586,"844":1.4495677947998047,"845":3.02007794380188,"846":3.905874252319336,"847":2.7787015438079834,"848":-3.4945528507232666,"849":1.964858889579773,"850":3.434072256088257,"851":1.7961235046386719,"852":2.6742746829986572,"853":-1.8307088613510132,"854":-2.615067481994629,"855":3.194338321685791,"856":3.9315953254699707,"857":-0.5809580087661743,"858":-2.0457372665405273,"859":-1.8824719190597534,"860":1.4741555452346802,"861":4.256136417388916,"862":7.548845291137695,"863":7.1765594482421875,"864":1.5818368196487427,"865":1.2722989320755005,"866":-13.010595321655273,"867":-9.646940231323242,"868":-4.235286712646484,"869":-1.8488435745239258,"870":1.742110252380371,"871":2.600148916244507,"872":-0.4628422260284424,"873":-6.86305570602417,"874":-4.313843250274658,"875":-0.9379717707633972,"876":0.053903978317976,"877":-3.4654452800750732,"878":0.2290453165769577,"879":-1.7808048725128174,"880":3.1804842948913574,"881":-6.5061492919921875,"882":0.8791313171386719,"883":-0.19782161712646484,"884":-1.531517744064331,"885":-3.508924961090088,"886":-4.951348781585693,"887":11.808281898498535,"888":6.839044570922852,"889":5.568397045135498,"890":-0.32372960448265076,"891":0.7324191927909851,"892":-3.6869189739227295,"893":0.32443922758102417,"894":0.3284757137298584,"895":2.9047367572784424,"896":-2.2215826511383057,"897":-0.30403900146484375,"898":-1.9290943145751953,"899":2.607708692550659,"900":-1.83135187625885,"901":0.691815972328186,"902":0.5472127795219421,"903":-1.9048261642456055,"904":-1.2541708946228027,"905":3.7569491863250732,"906":-1.0136964321136475,"907":-0.832766592502594,"908":-6.569149971008301,"909":0.27451032400131226,"910":-0.7103763818740845,"911":0.17960092425346375,"912":-4.6061530113220215,"913":0.9341117143630981,"914":0.6183762550354004,"915":2.6769683361053467,"916":6.6168365478515625,"917":3.924161434173584,"918":0.9532119035720825,"919":-3.7218146324157715,"920":-3.519996404647827,"921":1.8647397756576538,"922":-3.313807249069214,"923":0.43595972657203674,"924":-0.5161263346672058,"925":4.138547420501709,"926":-1.5678975582122803,"927":-1.522357702255249,"928":-2.427525043487549,"929":6.98225736618042,"930":-2.9531002044677734,"931":8.223076820373535,"932":-4.365605354309082,"933":1.8916563987731934,"934":0.18221528828144073,"935":-0.8882477283477783,"936":7.914020538330078,"937":-2.7870655059814453,"938":0.6352567076683044,"939":0.475568950176239,"940":-5.403362274169922,"941":1.870539903640747,"942":-8.093971252441406,"943":6.7028985023498535,"944":-6.117478370666504,"945":-4.668435573577881,"946":-0.8954489827156067,"947":1.9795939922332764,"948":-0.36907944083213806,"949":-1.5875753164291382,"950":1.1808663606643677,"951":-2.970012664794922,"952":2.4961328506469727,"953":5.051997184753418,"954":1.6628668308258057,"955":-2.602922201156616,"956":5.357858180999756,"957":9.821709632873535,"958":0.6293310523033142,"959":1.7488436698913574,"960":0.6340712308883667,"961":3.772728204727173,"962":4.750702857971191,"963":-5.193267822265625,"964":-3.896312952041626,"965":1.2450525760650635,"966":-1.8542098999023438,"967":-2.3468565940856934,"968":6.052369594573975,"969":0.8402002453804016,"970":3.0610759258270264,"971":3.6004908084869385,"972":-5.604750633239746,"973":8.475666999816895,"974":-4.840465545654297,"975":1.8741856813430786,"976":-4.453531265258789,"977":-2.4426417350769043,"978":-5.169661045074463,"979":11.143957138061523,"980":-3.087022066116333,"981":-0.43347465991973877,"982":12.721711158752441,"983":1.5692126750946045,"984":3.857279062271118,"985":-3.4300403594970703,"986":-0.9841996431350708,"987":2.784423589706421,"988":-10.658053398132324,"989":-5.183015823364258,"990":3.916111469268799,"991":-1.4847151041030884,"992":-5.639011383056641,"993":1.9392253160476685,"994":1.2944629192352295,"995":-7.683701515197754,"996":-1.0742968320846558,"997":0.025388462468981743,"998":-1.9296563863754272,"999":2.400834798812866,"1000":0.6935154795646667,"1001":4.817432403564453,"1002":11.221376419067383,"1003":-1.366133689880371,"1004":-3.0352346897125244,"1005":-1.0485122203826904,"1006":-6.068117141723633,"1007":-0.6072178483009338,"1008":-3.2482686042785645,"1009":3.8883373737335205,"1010":5.15196418762207,"1011":4.129261493682861,"1012":5.975696563720703,"1013":-1.5506491661071777,"1014":5.900301933288574,"1015":-1.3181592226028442,"1016":4.668402194976807,"1017":7.839818477630615,"1018":-8.73644733428955,"1019":9.457100868225098,"1020":6.0525617599487305,"1021":1.0015524625778198,"1022":10.889819145202637,"1023":-4.902972221374512,"1024":7.047918319702148,"1025":4.405750274658203,"1026":-4.2159342765808105,"1027":0.29470768570899963,"1028":-0.7293711304664612,"1029":2.410970449447632,"1030":5.5145111083984375,"1031":-7.166064262390137,"1032":-0.37245506048202515,"1033":-0.28171515464782715,"1034":-1.7853294610977173,"1035":1.9762895107269287,"1036":-2.5335373878479004,"1037":2.023041248321533,"1038":0.7803882360458374,"1039":-4.978707790374756,"1040":1.5081864595413208,"1041":-5.544700622558594,"1042":6.0299296379089355,"1043":-4.052878379821777,"1044":-5.341961860656738,"1045":-0.7900734543800354,"1046":5.714116096496582,"1047":-3.550323486328125,"1048":-1.6050752401351929,"1049":2.631082534790039,"1050":-1.3660095930099487,"1051":-1.2145283222198486,"1052":1.8109519481658936,"1053":5.116341590881348,"1054":2.969736099243164,"1055":2.9074628353118896,"1056":2.4933130741119385,"1057":-4.419713497161865,"1058":-6.115569591522217,"1059":3.8475914001464844,"1060":5.770450592041016,"1061":-11.115036010742188,"1062":3.292004346847534,"1063":-2.1821396350860596,"1064":-1.9034682512283325,"1065":5.959629535675049,"1066":1.0562199354171753,"1067":2.628138303756714,"1068":4.1735005378723145,"1069":5.926529407501221,"1070":-4.821801662445068,"1071":-0.86314857006073,"1072":-1.4560860395431519,"1073":-0.855954647064209,"1074":-1.3571912050247192,"1075":0.4269068241119385,"1076":5.1395087242126465,"1077":6.9761199951171875,"1078":-2.653385639190674,"1079":-6.593803405761719,"1080":5.064563274383545,"1081":2.541332244873047,"1082":4.004247665405273,"1083":5.842940330505371,"1084":-9.754091262817383,"1085":-0.15499024093151093,"1086":5.495016098022461,"1087":1.2339329719543457,"1088":-1.9050188064575195,"1089":-0.017165977507829666,"1090":0.015836698934435844,"1091":0.013574685901403427,"1092":0.0637982189655304,"1093":0.009884394705295563,"1094":0.027251703664660454,"1095":0.03491305932402611,"1096":-0.03604903444647789,"1097":-0.07200861722230911,"1098":0.058914054185152054,"1099":-0.014623335562646389,"1100":-0.029301278293132782,"1101":0.06662813574075699,"1102":-0.020719308406114578,"1103":0.020698899403214455,"1104":0.05705009028315544,"1105":0.005880263634026051,"1106":0.01034823153167963,"1107":-0.0609234981238842,"1108":0.03493974730372429,"1109":0.05902351438999176,"1110":-0.033282987773418427,"1111":-0.014218168333172798,"1112":-0.002990452339872718,"1113":0.03400595858693123,"1114":0.06105337291955948,"1115":0.04533201828598976,"1116":0.03572477400302887,"1117":-0.005915067624300718,"1118":0.03349876403808594,"1119":0.0784180536866188,"1120":-0.003169457195326686,"1121":-0.06166810542345047}},"hiddenLayers":[{"inputMatrix":{"rows":20,"columns":33,"weights":{"0":-0.013900754041969776,"1":-1.0221598148345947,"2":0.6124603748321533,"3":-1.1209944486618042,"4":-0.16779953241348267,"5":0.5697211623191833,"6":-1.4008458852767944,"7":0.7934712171554565,"8":-0.7514866590499878,"9":-0.2631891369819641,"10":-0.39588841795921326,"11":-0.1407681554555893,"12":-0.9358229637145996,"13":0.526246190071106,"14":0.30514776706695557,"15":-1.3148175477981567,"16":-2.5575451850891113,"17":-0.11241830140352249,"18":-1.2798248529434204,"19":0.9087367057800293,"20":-0.5438178181648254,"21":-0.9174623489379883,"22":-0.0678497776389122,"23":0.7999913096427917,"24":-0.939749538898468,"25":-1.2587484121322632,"26":-0.4595080316066742,"27":0.053374454379081726,"28":-0.8453651666641235,"29":3.177088499069214,"30":0.2936829626560211,"31":0.8368473649024963,"32":1.0435733795166016,"33":-0.21195776760578156,"34":0.3105543255805969,"35":2.4845120906829834,"36":-1.92304527759552,"37":-0.5693439245223999,"38":1.7568174600601196,"39":-0.840868353843689,"40":0.6706722378730774,"41":-0.3637760877609253,"42":-2.1636769771575928,"43":-0.01602976769208908,"44":-0.7993608117103577,"45":0.0499550886452198,"46":-2.1110036373138428,"47":1.3270113468170166,"48":-0.3572360873222351,"49":0.08191349357366562,"50":-0.3623911142349243,"51":-2.0906100273132324,"52":1.6955628395080566,"53":-0.2492048144340515,"54":-0.8324483036994934,"55":-1.5126477479934692,"56":2.00364089012146,"57":-2.0368945598602295,"58":-1.4235856533050537,"59":-1.7365435361862183,"60":-1.207017183303833,"61":2.1927638053894043,"62":0.15825587511062622,"63":0.7184153199195862,"64":0.06966319680213928,"65":1.0630466938018799,"66":-0.4371786415576935,"67":0.9378330111503601,"68":-0.38858383893966675,"69":0.01107789110392332,"70":0.31456369161605835,"71":0.05668244883418083,"72":1.7926597595214844,"73":-0.012287771329283714,"74":-1.2316712141036987,"75":-0.5324020981788635,"76":-0.31079915165901184,"77":-0.18675440549850464,"78":-1.8659241199493408,"79":-0.7342564463615417,"80":0.1800760179758072,"81":0.5681902766227722,"82":-0.5681718587875366,"83":0.709877073764801,"84":-0.5970956087112427,"85":0.5190770626068115,"86":0.7296473383903503,"87":0.611572265625,"88":-0.7204887866973877,"89":-0.01810469478368759,"90":0.21068117022514343,"91":-0.09215424209833145,"92":-0.4543287456035614,"93":-0.08848820626735687,"94":0.8427888751029968,"95":1.0153467655181885,"96":0.0098502729088068,"97":0.7440277338027954,"98":-0.3974234163761139,"99":-0.4463697671890259,"100":1.8124300241470337,"101":1.8888087272644043,"102":-0.4372686445713043,"103":1.403126835823059,"104":-0.1437842696905136,"105":-1.5536659955978394,"106":1.2943626642227173,"107":-1.2632023096084595,"108":-0.5656471848487854,"109":-0.5843682885169983,"110":0.5223170518875122,"111":0.14674216508865356,"112":-0.9600458145141602,"113":1.0211400985717773,"114":0.11576555669307709,"115":-2.1201252937316895,"116":0.43917807936668396,"117":-0.4661315083503723,"118":0.7114340662956238,"119":-2.509767532348633,"120":-2.437288284301758,"121":0.07449278980493546,"122":0.31027302145957947,"123":-1.191693663597107,"124":-0.7704583406448364,"125":-0.1595507264137268,"126":-0.5420880317687988,"127":-0.15318170189857483,"128":1.1765722036361694,"129":-1.2059054374694824,"130":0.037253811955451965,"131":0.19812464714050293,"132":0.5066373944282532,"133":-0.03140295669436455,"134":0.29727545380592346,"135":1.9442652463912964,"136":0.2993743419647217,"137":-0.5124205350875854,"138":0.6121653914451599,"139":-0.0264513548463583,"140":-1.719555377960205,"141":-1.0269980430603027,"142":-1.2503670454025269,"143":-0.160103440284729,"144":0.02644900046288967,"145":1.614365577697754,"146":-0.020899740979075432,"147":-0.5910391807556152,"148":-0.9587571620941162,"149":0.24320393800735474,"150":0.8601397275924683,"151":-0.5508027672767639,"152":0.7101535797119141,"153":-0.6904057264328003,"154":0.9998834729194641,"155":-1.3559682369232178,"156":3.069826364517212,"157":1.4948430061340332,"158":-0.031735945492982864,"159":0.656633198261261,"160":-2.8376433849334717,"161":0.3777559995651245,"162":0.511950671672821,"163":1.0473949909210205,"164":-0.3914215862751007,"165":1.1397740840911865,"166":1.2237634658813477,"167":-0.4974897503852844,"168":0.4630926549434662,"169":-0.27376091480255127,"170":-0.4521782100200653,"171":1.5682581663131714,"172":-0.36662352085113525,"173":-1.0671979188919067,"174":-1.0147005319595337,"175":0.16543421149253845,"176":0.09478424489498138,"177":-0.1288921982049942,"178":-0.02977454662322998,"179":1.5038659572601318,"180":0.009520899504423141,"181":0.3913188874721527,"182":0.221634179353714,"183":-0.34920182824134827,"184":-0.20132462680339813,"185":-0.16039206087589264,"186":-1.206040382385254,"187":0.6074383854866028,"188":-0.06678885221481323,"189":-0.22827766835689545,"190":0.35154885053634644,"191":1.3279467821121216,"192":0.1267075389623642,"193":1.0559080839157104,"194":1.7338838577270508,"195":1.2942180633544922,"196":-0.6485466361045837,"197":1.7325385808944702,"198":-0.3428392708301544,"199":-0.8986790776252747,"200":1.2828844785690308,"201":0.34585896134376526,"202":0.2215336710214615,"203":-0.16808174550533295,"204":-0.5902156233787537,"205":-0.31908276677131653,"206":2.435800313949585,"207":0.21771739423274994,"208":0.9072868824005127,"209":-0.2918788194656372,"210":0.05132365971803665,"211":0.44751301407814026,"212":0.6054860353469849,"213":-0.15038622915744781,"214":0.9320523142814636,"215":-0.43126803636550903,"216":-0.2031351625919342,"217":-0.36509573459625244,"218":1.6781286001205444,"219":-0.9975634217262268,"220":-0.2694413959980011,"221":0.20939868688583374,"222":-0.8677878379821777,"223":-0.49919676780700684,"224":-0.004402558319270611,"225":1.09215247631073,"226":-0.6370483040809631,"227":-1.2307754755020142,"228":1.4897774457931519,"229":0.8518260717391968,"230":-0.5790141224861145,"231":0.9577228426933289,"232":-0.38248327374458313,"233":-0.8220311999320984,"234":-0.9446304440498352,"235":-0.4998303949832916,"236":0.3343716263771057,"237":0.32515060901641846,"238":1.9794148206710815,"239":-0.10226383060216904,"240":0.09010007977485657,"241":-1.7898471355438232,"242":1.1369203329086304,"243":-1.005887746810913,"244":0.3414711654186249,"245":1.824783444404602,"246":1.0149548053741455,"247":-2.621213436126709,"248":-0.41532373428344727,"249":-1.3468271493911743,"250":1.339194416999817,"251":-1.907757043838501,"252":-0.7456979155540466,"253":-0.9663366079330444,"254":2.553149938583374,"255":0.834778904914856,"256":-0.3152211010456085,"257":2.5529327392578125,"258":-1.792695164680481,"259":-0.5390753149986267,"260":2.9024367332458496,"261":-0.33025601506233215,"262":-1.6066776514053345,"263":2.3285152912139893,"264":0.8383264541625977,"265":-0.3231534957885742,"266":-2.909278392791748,"267":-0.18712563812732697,"268":-2.256484270095825,"269":0.3086172342300415,"270":-1.9414887428283691,"271":-0.6737187504768372,"272":-1.1946377754211426,"273":1.7205077409744263,"274":-0.5353767275810242,"275":0.05052623897790909,"276":1.5432276725769043,"277":0.5287571549415588,"278":-0.5785875916481018,"279":0.3334817588329315,"280":1.3114500045776367,"281":1.414581298828125,"282":-1.294988989830017,"283":1.5292232036590576,"284":-2.0797510147094727,"285":0.44043847918510437,"286":0.2512171268463135,"287":0.6128312349319458,"288":1.2451093196868896,"289":0.4212719798088074,"290":-2.193068265914917,"291":-0.31163039803504944,"292":-0.5173105597496033,"293":0.07135992497205734,"294":0.2576346695423126,"295":-2.081576108932495,"296":-0.7650282382965088,"297":0.502056896686554,"298":-0.8268744945526123,"299":-1.1153422594070435,"300":0.18221692740917206,"301":1.1731350421905518,"302":-1.5574079751968384,"303":-0.45213595032691956,"304":-2.308955192565918,"305":1.7134463787078857,"306":-1.1563611030578613,"307":-0.5559718608856201,"308":0.166039377450943,"309":-0.21700946986675262,"310":0.5413466691970825,"311":0.6496931910514832,"312":-1.013788104057312,"313":-0.04891810566186905,"314":-1.9275801181793213,"315":-0.9578872919082642,"316":1.1439757347106934,"317":0.2951184809207916,"318":0.031205590814352036,"319":0.772651731967926,"320":-1.7783135175704956,"321":-0.2537744343280792,"322":1.9952919483184814,"323":0.5062286853790283,"324":0.1724316030740738,"325":-0.5900392532348633,"326":-0.5127572417259216,"327":2.28686785697937,"328":1.157849907875061,"329":1.3972927331924438,"330":-1.0704553127288818,"331":-0.5737720131874084,"332":0.6680368185043335,"333":-1.661790370941162,"334":0.03483842685818672,"335":-0.34937307238578796,"336":-1.3528271913528442,"337":0.8381349444389343,"338":0.025382274761795998,"339":-0.9137919545173645,"340":0.4361676871776581,"341":-0.9509015083312988,"342":-1.4291566610336304,"343":-1.4539052248001099,"344":0.6996425986289978,"345":0.25570735335350037,"346":-1.2748140096664429,"347":-0.6854053139686584,"348":-0.34142258763313293,"349":0.7996228933334351,"350":0.25152823328971863,"351":-1.8314656019210815,"352":-0.7629234194755554,"353":1.4633033275604248,"354":-0.3078019917011261,"355":0.18923720717430115,"356":2.3758931159973145,"357":0.07613497227430344,"358":0.18906815350055695,"359":-0.015458498150110245,"360":-0.5584188103675842,"361":-0.5219211578369141,"362":0.7194098830223083,"363":1.3484447002410889,"364":0.11506084352731705,"365":0.9153046607971191,"366":3.229322671890259,"367":-0.6323127746582031,"368":-1.192326307296753,"369":-2.0358500480651855,"370":0.8198879361152649,"371":1.063942551612854,"372":0.13538514077663422,"373":-0.13171124458312988,"374":0.3322809934616089,"375":0.9163373112678528,"376":1.4625518321990967,"377":-3.0627925395965576,"378":0.4501235783100128,"379":2.6600892543792725,"380":0.0413484051823616,"381":1.3511408567428589,"382":-0.7861482501029968,"383":-0.04644645005464554,"384":0.0043977415189146996,"385":1.5675498247146606,"386":-1.0935535430908203,"387":0.5499151349067688,"388":0.9934026002883911,"389":-0.5229771733283997,"390":1.8159247636795044,"391":-0.422447144985199,"392":-2.334507942199707,"393":-0.818326473236084,"394":0.7714605927467346,"395":-2.3668737411499023,"396":-0.19764302670955658,"397":0.3912034034729004,"398":-0.40042585134506226,"399":0.8770741820335388,"400":0.9433770775794983,"401":-0.5432094931602478,"402":2.0377466678619385,"403":-0.4704854488372803,"404":0.15572895109653473,"405":0.3583841025829315,"406":-0.60429847240448,"407":0.22950313985347748,"408":-1.2153310775756836,"409":-0.9506763815879822,"410":-0.2726663053035736,"411":0.4350370168685913,"412":-0.3642883896827698,"413":-1.237840175628662,"414":0.271898478269577,"415":0.11030393838882446,"416":0.049928367137908936,"417":0.3381005525588989,"418":0.46262603998184204,"419":-1.5354095697402954,"420":0.2571122646331787,"421":1.196976900100708,"422":0.6339523792266846,"423":1.1184401512145996,"424":1.7867332696914673,"425":-0.9681702256202698,"426":-0.884955108165741,"427":1.4971548318862915,"428":-0.28432509303092957,"429":0.483732134103775,"430":0.5168808698654175,"431":0.7509902715682983,"432":-1.7496180534362793,"433":-1.5225987434387207,"434":0.5475686192512512,"435":-0.8900646567344666,"436":1.2373826503753662,"437":-0.33729174733161926,"438":-1.499770164489746,"439":-0.9276581406593323,"440":0.5310531854629517,"441":-1.4928427934646606,"442":-1.1442705392837524,"443":1.6870207786560059,"444":-0.6282532811164856,"445":-1.7498984336853027,"446":-0.5967246294021606,"447":-0.040262751281261444,"448":0.23949700593948364,"449":-0.6710139513015747,"450":-0.12563419342041016,"451":-0.2157096564769745,"452":2.782118082046509,"453":-0.22396047413349152,"454":1.1138331890106201,"455":1.5058673620224,"456":-1.0405468940734863,"457":-0.30205467343330383,"458":1.2617697715759277,"459":-1.2253793478012085,"460":-0.448194295167923,"461":0.6666383147239685,"462":0.40055689215660095,"463":-0.7874640226364136,"464":2.906939744949341,"465":2.5529184341430664,"466":-0.5786738991737366,"467":-0.24617384374141693,"468":-0.5895134806632996,"469":0.5904231667518616,"470":1.6951956748962402,"471":-0.27290356159210205,"472":-0.43468397855758667,"473":0.07798068970441818,"474":1.1237775087356567,"475":2.6298224925994873,"476":1.606174349784851,"477":-0.5751321315765381,"478":-0.4486894905567169,"479":-1.207422137260437,"480":-0.3587944805622101,"481":0.34932342171669006,"482":1.9629749059677124,"483":-2.0203187465667725,"484":-0.28986069560050964,"485":1.1226049661636353,"486":-0.33313101530075073,"487":0.7478728890419006,"488":0.50278639793396,"489":0.6418631672859192,"490":-1.890541672706604,"491":-1.6031572818756104,"492":1.9697484970092773,"493":1.9773156642913818,"494":1.9667342901229858,"495":-0.030174976214766502,"496":0.45426735281944275,"497":0.14711809158325195,"498":0.47016432881355286,"499":1.483046054840088,"500":-0.35183075070381165,"501":1.2998398542404175,"502":-0.3308229446411133,"503":-0.18283066153526306,"504":-0.543870210647583,"505":-0.11047032475471497,"506":-0.5928530097007751,"507":-1.8365163803100586,"508":0.2378358691930771,"509":-0.26087960600852966,"510":0.41862425208091736,"511":-0.9371369481086731,"512":-0.3225977122783661,"513":0.42984047532081604,"514":0.09750546514987946,"515":1.3165147304534912,"516":-0.42888957262039185,"517":0.6063616275787354,"518":0.16739505529403687,"519":0.20221112668514252,"520":0.632221519947052,"521":1.352444052696228,"522":-0.5006248354911804,"523":-0.15426941215991974,"524":-0.1848648190498352,"525":0.21796353161334991,"526":0.8462662696838379,"527":-0.4905276596546173,"528":0.7243264317512512,"529":-0.8435946106910706,"530":1.170458197593689,"531":-0.6999428868293762,"532":0.3230854868888855,"533":0.3937132954597473,"534":-0.04978826269507408,"535":-1.32614004611969,"536":3.2694895267486572,"537":1.0473796129226685,"538":-0.7620891332626343,"539":0.6781362295150757,"540":-1.0897562503814697,"541":0.27710315585136414,"542":1.5685560703277588,"543":-0.8875437378883362,"544":0.6601795554161072,"545":-0.11969709396362305,"546":-0.09603362530469894,"547":-0.12568353116512299,"548":0.541721761226654,"549":2.242776393890381,"550":-1.5007482767105103,"551":0.5604863166809082,"552":0.728480875492096,"553":-1.203490138053894,"554":-0.6143792867660522,"555":-0.15566971898078918,"556":-1.5464484691619873,"557":-0.4962630569934845,"558":-0.1759963035583496,"559":2.6581876277923584,"560":-0.6069764494895935,"561":-0.33241426944732666,"562":-1.1248666048049927,"563":2.769042730331421,"564":0.2545246481895447,"565":-0.3512450158596039,"566":0.8955203294754028,"567":0.3613905608654022,"568":0.40476688742637634,"569":2.9675769805908203,"570":-0.920638918876648,"571":0.28008556365966797,"572":-0.34750092029571533,"573":-0.7850240468978882,"574":0.2808164656162262,"575":0.5514350533485413,"576":-2.0809104442596436,"577":-0.3838987946510315,"578":-0.7914407849311829,"579":-0.3410888910293579,"580":-0.20669227838516235,"581":2.7105371952056885,"582":-3.460944175720215,"583":-0.07414194196462631,"584":1.2236357927322388,"585":-1.4637322425842285,"586":1.396247386932373,"587":0.3505066931247711,"588":0.051287002861499786,"589":-0.4891074597835541,"590":-2.2563464641571045,"591":-0.2145177721977234,"592":-0.7197820544242859,"593":0.9233890175819397,"594":-0.7984894514083862,"595":-0.4055570960044861,"596":0.08084039390087128,"597":-1.5694894790649414,"598":-0.38903698325157166,"599":0.7356247305870056,"600":-1.6731339693069458,"601":-0.3668540120124817,"602":-0.52639240026474,"603":-1.517990231513977,"604":0.22051186859607697,"605":-1.1712769269943237,"606":-2.171666383743286,"607":-0.5403577089309692,"608":1.0682439804077148,"609":-0.10565310716629028,"610":-2.159991502761841,"611":0.2446439266204834,"612":-0.5519012212753296,"613":0.4134330749511719,"614":-0.517646849155426,"615":-1.428429365158081,"616":-2.262594699859619,"617":1.7604843378067017,"618":-1.832472801208496,"619":-0.1320226639509201,"620":-0.9545576572418213,"621":-0.16816815733909607,"622":-0.714885950088501,"623":-0.5645740032196045,"624":0.06170807406306267,"625":1.7592012882232666,"626":-0.10452746599912643,"627":-0.020788663998246193,"628":-0.9888219833374023,"629":-0.4259949326515198,"630":-0.596657931804657,"631":0.4869013726711273,"632":-0.5487257838249207,"633":-0.5777382254600525,"634":-1.3906227350234985,"635":0.017664551734924316,"636":0.29997894167900085,"637":-0.3091110289096832,"638":0.4072014093399048,"639":-1.1526014804840088,"640":-1.3323817253112793,"641":-0.025212641805410385,"642":-0.10272117704153061,"643":1.6743683815002441,"644":-0.756842315196991,"645":1.806603193283081,"646":-1.2314866781234741,"647":-1.3762184381484985,"648":2.848752975463867,"649":1.0680932998657227,"650":-0.567577600479126,"651":1.2180086374282837,"652":2.2136569023132324,"653":-0.3586890995502472,"654":0.3583697974681854,"655":-0.6469960808753967,"656":-1.297153115272522,"657":-2.956796407699585,"658":-0.9518824815750122,"659":-3.574857711791992}},"inputHidden":{"rows":20,"columns":20,"weights":{"0":1.31704843044281,"1":2.538762092590332,"2":2.591151237487793,"3":1.4397987127304077,"4":0.9220094680786133,"5":3.5830299854278564,"6":1.8574929237365723,"7":-1.0693366527557373,"8":4.008906841278076,"9":-0.1289292722940445,"10":4.254904270172119,"11":0.845854640007019,"12":-0.7523528337478638,"13":-0.0007956750923767686,"14":0.3094739019870758,"15":2.1986968517303467,"16":4.22199010848999,"17":-1.4286004304885864,"18":-0.9564430713653564,"19":-0.2624722421169281,"20":0.5128985047340393,"21":0.2550773024559021,"22":2.1206226348876953,"23":0.06788460910320282,"24":-1.4086905717849731,"25":-1.6005390882492065,"26":1.7502752542495728,"27":1.6186566352844238,"28":2.833782196044922,"29":-0.8511240482330322,"30":-0.9168310761451721,"31":1.6594911813735962,"32":0.5239856839179993,"33":0.39837661385536194,"34":-0.9652889966964722,"35":-0.9292459487915039,"36":1.4770660400390625,"37":-0.7609878182411194,"38":0.5366042852401733,"39":-0.6849580407142639,"40":0.706044614315033,"41":4.106298923492432,"42":-2.383511543273926,"43":-2.30694842338562,"44":-2.4770209789276123,"45":-1.3197742700576782,"46":1.5899566411972046,"47":-0.1288156360387802,"48":1.9423574209213257,"49":-4.215255260467529,"50":-0.17628957331180573,"51":0.7980709671974182,"52":3.488541603088379,"53":2.393009901046753,"54":-4.254207134246826,"55":-3.635258197784424,"56":1.236740231513977,"57":1.9932785034179688,"58":0.5308224558830261,"59":1.8286066055297852,"60":1.5269906520843506,"61":-1.705377459526062,"62":-0.22029924392700195,"63":1.3744901418685913,"64":0.05201904475688934,"65":1.9910168647766113,"66":0.1493324339389801,"67":-2.107144832611084,"68":-1.640087604522705,"69":0.473688006401062,"70":2.390582799911499,"71":-0.969443142414093,"72":-0.380739688873291,"73":0.2871829569339752,"74":-0.4145214557647705,"75":1.2941420078277588,"76":-0.9994669556617737,"77":0.14393499493598938,"78":0.03601730614900589,"79":-0.3182603120803833,"80":-1.7752928733825684,"81":-2.025559186935425,"82":1.1781344413757324,"83":1.2558587789535522,"84":-0.7595427632331848,"85":-3.3362228870391846,"86":-2.444711446762085,"87":0.5413732528686523,"88":0.918497622013092,"89":1.6427626609802246,"90":2.086294651031494,"91":-0.8002319931983948,"92":-0.9170719385147095,"93":3.284759759902954,"94":2.4006459712982178,"95":1.1808104515075684,"96":-1.9521061182022095,"97":0.4039522111415863,"98":-0.07202280312776566,"99":-0.5339911580085754,"100":1.490400791168213,"101":5.201076507568359,"102":-1.1844815015792847,"103":2.413445472717285,"104":1.1689790487289429,"105":3.988027334213257,"106":-1.3618977069854736,"107":-2.900174140930176,"108":-2.205967903137207,"109":3.960899829864502,"110":2.1537437438964844,"111":-0.9067302346229553,"112":0.4513561427593231,"113":1.0106838941574097,"114":-2.3771071434020996,"115":1.8746122121810913,"116":1.0648589134216309,"117":-0.16464518010616302,"118":0.4409743845462799,"119":-3.572300672531128,"120":-3.4348506927490234,"121":-0.8275731801986694,"122":-0.3461621403694153,"123":-4.203114986419678,"124":0.2824184000492096,"125":-0.33131206035614014,"126":1.866030216217041,"127":0.4638771116733551,"128":-1.6066449880599976,"129":-3.3874833583831787,"130":0.25571200251579285,"131":0.7285837531089783,"132":0.17206215858459473,"133":-0.199844092130661,"134":-3.7689285278320312,"135":-2.893911361694336,"136":-2.2917120456695557,"137":4.423069953918457,"138":-1.323252558708191,"139":0.6306703686714172,"140":1.4355967044830322,"141":1.6322656869888306,"142":-1.3310332298278809,"143":-1.381168246269226,"144":1.2154959440231323,"145":-1.608763337135315,"146":0.403360515832901,"147":-0.5444979071617126,"148":-3.6929378509521484,"149":1.8156850337982178,"150":2.22782826423645,"151":-2.10691237449646,"152":-1.5883671045303345,"153":-2.7258200645446777,"154":0.0832039937376976,"155":-0.2595311999320984,"156":-1.846081018447876,"157":0.5061502456665039,"158":-0.34847745299339294,"159":-0.25301313400268555,"160":0.39517465233802795,"161":0.8939802646636963,"162":3.7445595264434814,"163":2.189871311187744,"164":2.1705355644226074,"165":-0.3274577558040619,"166":0.2847309410572052,"167":-1.0776244401931763,"168":-0.08046533167362213,"169":0.4764489233493805,"170":2.248030662536621,"171":-0.8332428336143494,"172":-1.5748639106750488,"173":0.3001401424407959,"174":0.020014526322484016,"175":1.2120178937911987,"176":0.6762977242469788,"177":-1.0702077150344849,"178":0.5566280484199524,"179":0.882182240486145,"180":-0.9308153390884399,"181":-0.5839232802391052,"182":-1.2112916707992554,"183":1.6004048585891724,"184":-0.4704371392726898,"185":-4.45980167388916,"186":0.1672704964876175,"187":-0.5239502191543579,"188":-0.9199383854866028,"189":2.311103343963623,"190":-0.5072004795074463,"191":-0.3027922511100769,"192":1.8173059225082397,"193":0.9733852744102478,"194":-0.1616131216287613,"195":-1.0763829946517944,"196":0.5465092658996582,"197":0.6577340960502625,"198":2.1997766494750977,"199":0.1721573770046234,"200":0.6473276615142822,"201":3.538142204284668,"202":0.351156622171402,"203":-0.6005403995513916,"204":2.8303184509277344,"205":-0.128980353474617,"206":-2.0951192378997803,"207":-3.215866804122925,"208":-1.484969139099121,"209":5.387668609619141,"210":1.317253828048706,"211":-0.8584045171737671,"212":2.3594274520874023,"213":0.36714139580726624,"214":0.12386885285377502,"215":2.181060791015625,"216":3.563957929611206,"217":1.5764437913894653,"218":0.5281937718391418,"219":0.09827034920454025,"220":0.3444047272205353,"221":-2.395437002182007,"222":0.280327171087265,"223":-0.1508282572031021,"224":1.4941606521606445,"225":-0.947802722454071,"226":0.9727210402488708,"227":-0.7462908029556274,"228":0.4674093723297119,"229":0.8100348711013794,"230":1.1310049295425415,"231":-2.1319284439086914,"232":-0.0996052697300911,"233":-0.31454551219940186,"234":1.169844150543213,"235":1.6028777360916138,"236":-0.9908598065376282,"237":-0.09267257899045944,"238":1.1446382999420166,"239":-2.0372860431671143,"240":1.243058204650879,"241":2.3555238246917725,"242":1.7885512113571167,"243":1.1969537734985352,"244":-1.4784917831420898,"245":3.165583848953247,"246":5.64749813079834,"247":-2.9391345977783203,"248":0.06327226758003235,"249":-2.5309314727783203,"250":2.326817035675049,"251":2.2702958583831787,"252":1.2762030363082886,"253":-1.0277299880981445,"254":1.0493899583816528,"255":1.8654097318649292,"256":3.5985496044158936,"257":-1.9308720827102661,"258":-0.6297274827957153,"259":1.8099911212921143,"260":-5.030442714691162,"261":-0.24156472086906433,"262":0.9500686526298523,"263":2.4842987060546875,"264":0.5923691391944885,"265":-1.168516755104065,"266":0.07588891685009003,"267":-0.35638412833213806,"268":-1.3249841928482056,"269":-1.1638882160186768,"270":0.05327820032835007,"271":-0.3416562080383301,"272":-2.026376724243164,"273":-1.7515279054641724,"274":2.0332701206207275,"275":0.5742729902267456,"276":1.8260977268218994,"277":-3.448455572128296,"278":-2.408344268798828,"279":-1.8019801378250122,"280":0.1700664460659027,"281":-4.421669960021973,"282":0.8843755125999451,"283":-0.29437950253486633,"284":0.07438094168901443,"285":1.1835877895355225,"286":-2.1729326248168945,"287":0.6590515375137329,"288":-0.615032970905304,"289":-0.8581528067588806,"290":-3.864253520965576,"291":0.16549848020076752,"292":-2.865361452102661,"293":-0.7996469736099243,"294":1.9300295114517212,"295":0.31318429112434387,"296":1.692143440246582,"297":-1.4589377641677856,"298":0.2638304829597473,"299":-0.2647782564163208,"300":1.9339454174041748,"301":-2.5327515602111816,"302":1.996859073638916,"303":0.24186864495277405,"304":-1.010127305984497,"305":-1.023857831954956,"306":-0.5110177397727966,"307":-1.7793567180633545,"308":-6.427286624908447,"309":2.279846668243408,"310":2.5592732429504395,"311":3.0953643321990967,"312":0.26922258734703064,"313":-1.0248429775238037,"314":-2.8136634826660156,"315":2.0075197219848633,"316":-1.3719782829284668,"317":-1.3276753425598145,"318":-0.6107258796691895,"319":1.4833086729049683,"320":0.418435662984848,"321":-0.5101931095123291,"322":4.3324360847473145,"323":-4.43112325668335,"324":-1.9684994220733643,"325":0.47831717133522034,"326":0.6844133734703064,"327":-3.2546961307525635,"328":-2.957217216491699,"329":1.2297728061676025,"330":0.9817614555358887,"331":-1.6834347248077393,"332":-1.2609366178512573,"333":-1.617542028427124,"334":2.4304513931274414,"335":2.643244504928589,"336":-0.9065281748771667,"337":-3.699733257293701,"338":-0.19370409846305847,"339":-0.1980983316898346,"340":2.810706615447998,"341":3.0235166549682617,"342":1.8368806838989258,"343":1.0307027101516724,"344":0.45111268758773804,"345":2.4668893814086914,"346":-2.0875132083892822,"347":-2.133596420288086,"348":-0.7158917784690857,"349":2.77824068069458,"350":0.07677074521780014,"351":0.34713947772979736,"352":3.0451200008392334,"353":1.3283767700195312,"354":3.277566432952881,"355":0.09194854646921158,"356":0.6059054136276245,"357":0.3213479518890381,"358":0.24691849946975708,"359":1.1405243873596191,"360":1.2826863527297974,"361":5.0773844718933105,"362":0.03550393879413605,"363":-1.0372868776321411,"364":-0.8608848452568054,"365":-4.326310157775879,"366":-0.0005133952363394201,"367":1.3745888471603394,"368":0.49072936177253723,"369":-0.12280213087797165,"370":-0.5579675436019897,"371":1.4939082860946655,"372":-1.1907638311386108,"373":0.5607542395591736,"374":1.27476966381073,"375":-0.80525803565979,"376":1.102589726448059,"377":-2.579345941543579,"378":2.438746690750122,"379":1.6878598928451538,"380":2.5348048210144043,"381":-1.1514991521835327,"382":-0.23719249665737152,"383":-0.8173670172691345,"384":0.3228057026863098,"385":0.8539250493049622,"386":-1.8768117427825928,"387":0.07379420846700668,"388":0.754757285118103,"389":-0.1438092440366745,"390":3.979543447494507,"391":-1.0571130514144897,"392":-1.541481375694275,"393":-0.3168657422065735,"394":1.015308141708374,"395":-3.3785085678100586,"396":-2.2133138179779053,"397":2.4037201404571533,"398":-1.0566023588180542,"399":0.05914231389760971}},"inputBias":{"rows":20,"columns":1,"weights":{"0":0.20639491081237793,"1":0.0426042266190052,"2":1.0166131258010864,"3":-0.6929988861083984,"4":-1.2686591148376465,"5":-0.9236291646957397,"6":-0.4292721450328827,"7":0.08046641945838928,"8":-0.09571518748998642,"9":-0.35955098271369934,"10":-0.699343204498291,"11":-1.67771577835083,"12":0.5127520561218262,"13":-1.0774608850479126,"14":-0.8335192203521729,"15":0.32577067613601685,"16":-0.9509866833686829,"17":-0.5121657252311707,"18":-0.9003406763076782,"19":-0.205187126994133}},"forgetMatrix":{"rows":20,"columns":33,"weights":{"0":-0.4989677369594574,"1":1.3328094482421875,"2":-0.2891090214252472,"3":-0.6617152690887451,"4":0.6201679706573486,"5":-0.665971577167511,"6":2.069850206375122,"7":-0.5810232758522034,"8":1.220454454421997,"9":1.7024931907653809,"10":1.4451884031295776,"11":0.641233503818512,"12":0.6039510369300842,"13":1.3949121236801147,"14":-0.543843686580658,"15":0.4499407410621643,"16":-0.1632639765739441,"17":0.1805528849363327,"18":-1.5491832494735718,"19":1.2842684984207153,"20":1.7038958072662354,"21":0.27685388922691345,"22":-0.54454106092453,"23":0.4732891321182251,"24":0.12428093701601028,"25":-0.10135199129581451,"26":1.545892596244812,"27":0.44768020510673523,"28":0.3316417634487152,"29":-0.5118951797485352,"30":1.2122093439102173,"31":1.576515793800354,"32":0.9183810949325562,"33":-0.3514248728752136,"34":0.7597053050994873,"35":-1.7964632511138916,"36":0.7611613869667053,"37":0.6329774260520935,"38":0.05043010413646698,"39":0.7844136357307434,"40":-1.0787116289138794,"41":0.029621662572026253,"42":0.37314924597740173,"43":-0.20931392908096313,"44":-0.2566058039665222,"45":1.1964869499206543,"46":0.940682053565979,"47":-0.27808859944343567,"48":-0.6437013149261475,"49":-1.9202529191970825,"50":-0.07421837747097015,"51":-1.2396764755249023,"52":1.3164960145950317,"53":0.3212456703186035,"54":1.25489342212677,"55":0.7044948935508728,"56":-1.0647326707839966,"57":2.1777589321136475,"58":0.7757455706596375,"59":2.030123233795166,"60":1.527274489402771,"61":-1.4789180755615234,"62":-0.7762293219566345,"63":2.7299511432647705,"64":1.7955225706100464,"65":1.8950291872024536,"66":0.7952724099159241,"67":-0.6503400802612305,"68":2.061490535736084,"69":2.6825406551361084,"70":0.9267839789390564,"71":0.6386705040931702,"72":0.1792839616537094,"73":0.4630596935749054,"74":-0.780144453048706,"75":-0.9514430165290833,"76":-2.472210168838501,"77":-0.3480464220046997,"78":0.9826683402061462,"79":2.1296863555908203,"80":0.6911315321922302,"81":-0.7491883039474487,"82":-1.3069244623184204,"83":-1.5624991655349731,"84":-1.465979814529419,"85":0.8611041903495789,"86":1.919438362121582,"87":-2.02695369720459,"88":-1.2580270767211914,"89":2.2954142093658447,"90":1.5817654132843018,"91":-0.6628624796867371,"92":0.3753935396671295,"93":-0.8201268911361694,"94":-4.197726249694824,"95":0.8270822167396545,"96":0.9207682013511658,"97":1.740490436553955,"98":3.1711881160736084,"99":1.0437486171722412,"100":0.003312483662739396,"101":-0.03837338835000992,"102":0.3349887728691101,"103":-0.8979257941246033,"104":0.22966034710407257,"105":0.22509673237800598,"106":0.11904063820838928,"107":1.3151081800460815,"108":0.14642202854156494,"109":0.43373873829841614,"110":0.014497100375592709,"111":0.7658117413520813,"112":0.26711589097976685,"113":0.02268567495048046,"114":-0.2174421101808548,"115":0.7819347977638245,"116":0.40808504819869995,"117":0.29132017493247986,"118":-0.2190963178873062,"119":0.7933192253112793,"120":0.07679082453250885,"121":0.03403012454509735,"122":0.21974214911460876,"123":-1.3877841234207153,"124":-0.33390510082244873,"125":-0.14462240040302277,"126":0.214394211769104,"127":2.0890281200408936,"128":-0.4856741428375244,"129":-0.9534921646118164,"130":-1.3344806432724,"131":0.8432558178901672,"132":-0.06822404265403748,"133":-0.288508802652359,"134":0.02358626015484333,"135":0.8955920338630676,"136":-0.5726667046546936,"137":-0.9173639416694641,"138":1.0391470193862915,"139":-1.0699542760849,"140":0.3476559519767761,"141":-2.034392833709717,"142":-1.102398157119751,"143":-0.7517067193984985,"144":0.6279139518737793,"145":-0.05676673352718353,"146":0.40273362398147583,"147":-0.258456289768219,"148":0.21778136491775513,"149":0.3334912359714508,"150":0.6766762733459473,"151":-0.24716688692569733,"152":1.5250695943832397,"153":0.6217508912086487,"154":0.28649458289146423,"155":0.009195216931402683,"156":0.4842667281627655,"157":0.925620973110199,"158":0.7345414757728577,"159":1.3534760475158691,"160":-0.4892567992210388,"161":0.524578869342804,"162":1.2917031049728394,"163":1.8818609714508057,"164":1.1408718824386597,"165":0.4967462718486786,"166":-0.3520162105560303,"167":1.2897030115127563,"168":1.2827441692352295,"169":-0.542412281036377,"170":0.5900395512580872,"171":-0.7974432706832886,"172":0.9434205889701843,"173":-0.4854732155799866,"174":0.06312726438045502,"175":-1.6555265188217163,"176":-0.6963829398155212,"177":0.5914571285247803,"178":-0.08965227007865906,"179":-0.60467529296875,"180":1.456633448600769,"181":0.44465914368629456,"182":0.9146749973297119,"183":1.5520002841949463,"184":-1.210418701171875,"185":1.04110848903656,"186":2.0934979915618896,"187":0.09967612475156784,"188":-0.7267342209815979,"189":0.7199747562408447,"190":-0.617011308670044,"191":-2.56133770942688,"192":0.44723081588745117,"193":-0.2231314331293106,"194":1.0261662006378174,"195":-1.0546965599060059,"196":1.0835314989089966,"197":-0.17973122000694275,"198":0.5586591958999634,"199":-0.06305286288261414,"200":-0.5212948322296143,"201":-0.34318143129348755,"202":0.12546180188655853,"203":0.0004317480488680303,"204":-0.23108865320682526,"205":0.5011771321296692,"206":0.08755825459957123,"207":2.066307544708252,"208":0.11548037827014923,"209":1.2425575256347656,"210":2.8195712566375732,"211":2.52266001701355,"212":0.011496057733893394,"213":-2.151810884475708,"214":0.41816794872283936,"215":0.8204867839813232,"216":-0.3459751307964325,"217":0.11108210682868958,"218":-0.35612329840660095,"219":-1.4504821300506592,"220":1.5229839086532593,"221":0.7727681994438171,"222":-0.3769495487213135,"223":-1.5171411037445068,"224":0.2825617790222168,"225":0.2909266948699951,"226":-1.9283403158187866,"227":1.6760950088500977,"228":0.9617772698402405,"229":-2.0424718856811523,"230":1.4310795068740845,"231":-0.6410819888114929,"232":0.42183950543403625,"233":0.7481877207756042,"234":-1.266440987586975,"235":-1.8583250045776367,"236":1.2870808839797974,"237":-0.47700557112693787,"238":1.258428931236267,"239":0.5776827931404114,"240":-0.5662988424301147,"241":-0.30756399035453796,"242":-1.1170202493667603,"243":0.293470174074173,"244":-1.0962579250335693,"245":0.7938085198402405,"246":0.5310424566268921,"247":-0.7288827300071716,"248":1.0158385038375854,"249":-1.6160300970077515,"250":1.8327751159667969,"251":-0.7678967714309692,"252":-1.0039836168289185,"253":-1.4891303777694702,"254":2.4617931842803955,"255":-1.6083831787109375,"256":-1.9486758708953857,"257":-1.996154546737671,"258":-2.3977808952331543,"259":2.3272206783294678,"260":-0.17889873683452606,"261":0.11260442435741425,"262":-0.07151717692613602,"263":1.894500494003296,"264":0.0965980663895607,"265":0.33158499002456665,"266":-2.8810582160949707,"267":-2.223142623901367,"268":-0.8232404589653015,"269":0.005778428167104721,"270":-1.2008662223815918,"271":-0.8598761558532715,"272":1.275734543800354,"273":0.06704023480415344,"274":0.8771309852600098,"275":-0.007334613241255283,"276":0.9907837510108948,"277":-0.27316221594810486,"278":-0.5229523181915283,"279":2.0753211975097656,"280":3.240330219268799,"281":0.5456417202949524,"282":-0.5770068168640137,"283":1.1373732089996338,"284":-0.9639315009117126,"285":0.8235234022140503,"286":1.5443624258041382,"287":-0.2852696478366852,"288":-3.8730647563934326,"289":-0.5596678256988525,"290":-1.2879348993301392,"291":-0.6341280341148376,"292":4.014910697937012,"293":-1.2424695491790771,"294":0.4387436807155609,"295":-2.057614326477051,"296":-1.0836217403411865,"297":-1.0203858613967896,"298":-1.5745363235473633,"299":-2.3333959579467773,"300":-1.1611220836639404,"301":1.3505659103393555,"302":-1.1393243074417114,"303":0.034855518490076065,"304":-1.5620228052139282,"305":-0.5949991345405579,"306":2.6156699657440186,"307":0.3252548277378082,"308":0.6850679516792297,"309":-1.22675359249115,"310":0.9032490253448486,"311":-0.06238214299082756,"312":0.7501428723335266,"313":0.5076638460159302,"314":-1.4997719526290894,"315":2.2170941829681396,"316":-1.61805260181427,"317":0.23663374781608582,"318":0.8126524686813354,"319":-0.5250920653343201,"320":0.9560585618019104,"321":0.5798247456550598,"322":0.0607832595705986,"323":1.7601871490478516,"324":-0.10792262107133865,"325":-2.064563274383545,"326":-0.5880466103553772,"327":-1.2890881299972534,"328":-1.529847502708435,"329":-0.18380242586135864,"330":-0.4617162048816681,"331":-0.0160675048828125,"332":-0.543710470199585,"333":0.05344465747475624,"334":2.329505681991577,"335":-0.8532489538192749,"336":-1.0031994581222534,"337":-1.0781744718551636,"338":0.2692216634750366,"339":-0.6594488024711609,"340":-1.20893394947052,"341":-0.13257363438606262,"342":0.0641016960144043,"343":0.14915327727794647,"344":0.9748958349227905,"345":-0.6200339794158936,"346":-0.8448222279548645,"347":-1.2830156087875366,"348":0.30361026525497437,"349":-0.5965434908866882,"350":-1.180740475654602,"351":-0.16228453814983368,"352":0.5863289833068848,"353":-0.1296415627002716,"354":0.04243496060371399,"355":0.6999947428703308,"356":1.1590580940246582,"357":0.1896265745162964,"358":-1.8466682434082031,"359":0.9600993990898132,"360":0.24173589050769806,"361":-0.5522221326828003,"362":0.7159284353256226,"363":0.1374402493238449,"364":-1.5621089935302734,"365":1.4288997650146484,"366":0.7862564921379089,"367":0.30424878001213074,"368":-0.5802277326583862,"369":-0.04736868664622307,"370":-0.40418773889541626,"371":0.6759070754051208,"372":-0.8974891901016235,"373":-0.42765629291534424,"374":0.23029319941997528,"375":-0.4433980882167816,"376":-0.48690566420555115,"377":0.47625041007995605,"378":0.04564812406897545,"379":0.48807087540626526,"380":-0.9489501118659973,"381":0.20423588156700134,"382":-0.21237815916538239,"383":0.49922120571136475,"384":-0.7449423670768738,"385":-0.28880807757377625,"386":0.31648755073547363,"387":0.05124584212899208,"388":-0.4029883146286011,"389":-0.14620399475097656,"390":0.2196720540523529,"391":0.8230827450752258,"392":0.34605515003204346,"393":-1.2664918899536133,"394":0.8472585082054138,"395":-0.09388776123523712,"396":1.1566548347473145,"397":1.2131164073944092,"398":0.6431540846824646,"399":0.9555659890174866,"400":0.5370170474052429,"401":-0.8436978459358215,"402":2.5931217670440674,"403":0.02237582951784134,"404":0.18974751234054565,"405":-0.13870635628700256,"406":1.45956552028656,"407":0.7934149503707886,"408":-1.0924296379089355,"409":0.21126620471477509,"410":-0.05563049018383026,"411":-0.5717597603797913,"412":0.6804134845733643,"413":-0.9573677182197571,"414":0.046345070004463196,"415":-0.40339577198028564,"416":0.47565940022468567,"417":-0.39494574069976807,"418":2.641721725463867,"419":-1.765059471130371,"420":-0.1090465858578682,"421":1.7661919593811035,"422":3.079437017440796,"423":0.10143718123435974,"424":0.7961955070495605,"425":-0.5209808945655823,"426":1.2132999897003174,"427":-0.3895038664340973,"428":-0.4115142524242401,"429":-1.7345761060714722,"430":1.2545661926269531,"431":-0.08101608604192734,"432":-3.157743215560913,"433":-1.805922508239746,"434":0.4976552128791809,"435":0.1072714701294899,"436":-0.4451140761375427,"437":0.37021926045417786,"438":0.6982627511024475,"439":-0.9577569365501404,"440":-0.9772776961326599,"441":-0.4339084327220917,"442":1.219038486480713,"443":1.727864384651184,"444":0.7816014885902405,"445":-0.3275865316390991,"446":0.6439840197563171,"447":0.9177891612052917,"448":-0.6859687566757202,"449":-0.40284499526023865,"450":0.15940730273723602,"451":-1.2268574237823486,"452":3.8580689430236816,"453":-0.06998355686664581,"454":-1.1692627668380737,"455":1.7404489517211914,"456":-1.519006609916687,"457":-0.635534405708313,"458":-0.07884372770786285,"459":1.175370454788208,"460":-2.0055489540100098,"461":-0.6642397046089172,"462":1.2663841247558594,"463":-0.32235854864120483,"464":2.2908530235290527,"465":-0.7831946015357971,"466":-1.5821093320846558,"467":-0.4058969020843506,"468":-3.7459917068481445,"469":1.9746850728988647,"470":0.933060348033905,"471":-1.3514764308929443,"472":-1.79008948802948,"473":-0.770904541015625,"474":1.7703300714492798,"475":-0.5711053013801575,"476":0.15828751027584076,"477":1.4758471250534058,"478":-1.3443044424057007,"479":0.944960355758667,"480":-1.0709774494171143,"481":0.8194023370742798,"482":-0.43466997146606445,"483":-1.2725279331207275,"484":-1.4091557264328003,"485":1.313267707824707,"486":-0.29401782155036926,"487":-1.6268423795700073,"488":-2.1995701789855957,"489":0.7976457476615906,"490":0.45794472098350525,"491":-1.0944515466690063,"492":-0.28290706872940063,"493":1.061028242111206,"494":1.8194615840911865,"495":-0.659159243106842,"496":0.2432866096496582,"497":-1.386179804801941,"498":-2.171954870223999,"499":0.36832746863365173,"500":1.6212879419326782,"501":0.8215298652648926,"502":-1.4830710887908936,"503":-1.3482857942581177,"504":-0.43901050090789795,"505":0.22571693360805511,"506":-0.8002683520317078,"507":-1.2871711254119873,"508":-1.647326111793518,"509":1.1610795259475708,"510":-1.5369294881820679,"511":0.20826564729213715,"512":-0.35172271728515625,"513":-0.7697977423667908,"514":0.40346789360046387,"515":-1.3614845275878906,"516":-0.6842907667160034,"517":1.066325306892395,"518":-0.9302789568901062,"519":-0.7493511438369751,"520":1.0376243591308594,"521":-0.707118570804596,"522":-1.2634344100952148,"523":-0.706517219543457,"524":0.19318844377994537,"525":1.0090137720108032,"526":-1.234291911125183,"527":-0.5996840000152588,"528":0.47575491666793823,"529":-1.9657618999481201,"530":0.5559762120246887,"531":0.8167878985404968,"532":2.8016650676727295,"533":-0.5132025480270386,"534":-1.0790883302688599,"535":-0.6101269125938416,"536":-1.4781296253204346,"537":-1.592871904373169,"538":-1.5976544618606567,"539":0.1753002405166626,"540":-0.6451671123504639,"541":-0.247719869017601,"542":0.22018350660800934,"543":0.21704398095607758,"544":-1.2648341655731201,"545":-1.171609878540039,"546":-0.22622857987880707,"547":-0.27743425965309143,"548":0.09534037113189697,"549":-0.4972214698791504,"550":-0.40421175956726074,"551":0.26895463466644287,"552":1.0960993766784668,"553":-1.0463422536849976,"554":0.02833479270339012,"555":0.4083106219768524,"556":-1.8144912719726562,"557":0.5113494992256165,"558":0.1387922465801239,"559":-0.3839169442653656,"560":0.12996798753738403,"561":-0.1410582810640335,"562":-0.8901593685150146,"563":-0.5464960336685181,"564":1.4495059251785278,"565":0.6436811685562134,"566":-0.6836029291152954,"567":0.26232561469078064,"568":-0.6292929649353027,"569":-0.7225912809371948,"570":0.8193869590759277,"571":-0.42647072672843933,"572":0.1723613739013672,"573":0.9945807456970215,"574":-0.3343244194984436,"575":-0.9226568341255188,"576":-0.617116391658783,"577":0.5477070212364197,"578":0.7886506915092468,"579":-0.03794388473033905,"580":-0.8093268275260925,"581":0.7714185118675232,"582":0.5500484108924866,"583":1.1564247608184814,"584":-2.523401975631714,"585":0.41012194752693176,"586":-0.6712900996208191,"587":-0.7802391648292542,"588":0.7757149338722229,"589":0.31271862983703613,"590":1.6082940101623535,"591":0.9475961923599243,"592":1.0101819038391113,"593":-0.584496259689331,"594":-1.2005412578582764,"595":-0.8818125128746033,"596":-1.2032980918884277,"597":-0.21364404261112213,"598":1.993834137916565,"599":-0.08940041065216064,"600":1.9515215158462524,"601":-2.4529693126678467,"602":-1.4304940700531006,"603":0.06667137145996094,"604":0.7730863094329834,"605":-0.6659201383590698,"606":-2.631647825241089,"607":-0.985047459602356,"608":0.9795652627944946,"609":-3.113438367843628,"610":-1.3046162128448486,"611":-1.5234147310256958,"612":-0.9286400079727173,"613":1.1828581094741821,"614":0.7076490521430969,"615":0.023530177772045135,"616":1.6732690334320068,"617":-1.6625443696975708,"618":-0.8121912479400635,"619":0.7717881798744202,"620":0.36731719970703125,"621":-0.20543813705444336,"622":0.8169525265693665,"623":0.977415144443512,"624":0.4591836631298065,"625":1.7647285461425781,"626":0.32640504837036133,"627":-0.1579607129096985,"628":-0.05313356965780258,"629":-1.6236281394958496,"630":-0.8110740184783936,"631":-1.0271350145339966,"632":1.5618709325790405,"633":0.856895387172699,"634":1.0247501134872437,"635":-1.5962103605270386,"636":1.6619268655776978,"637":1.202457308769226,"638":-0.786590039730072,"639":0.1353333294391632,"640":0.3145640790462494,"641":-0.7181468605995178,"642":0.26638737320899963,"643":0.7922635674476624,"644":1.6838538646697998,"645":0.2552547752857208,"646":-0.15104393661022186,"647":0.21123181283473969,"648":-0.1842811107635498,"649":0.3287425637245178,"650":1.0922638177871704,"651":0.5217205286026001,"652":0.39209774136543274,"653":-0.3388441503047943,"654":-1.04462730884552,"655":1.287609577178955,"656":-0.3628857135772705,"657":-1.827998161315918,"658":-2.760349750518799,"659":-1.2098842859268188}},"forgetHidden":{"rows":20,"columns":20,"weights":{"0":-0.3259804844856262,"1":-1.1720987558364868,"2":1.71840238571167,"3":-0.07701828330755234,"4":2.8201515674591064,"5":-0.4324951469898224,"6":1.966179609298706,"7":-0.7508677840232849,"8":0.9763864278793335,"9":0.5815277695655823,"10":-0.39397045969963074,"11":-0.8629110455513,"12":-3.488715887069702,"13":-0.6933576464653015,"14":1.735893726348877,"15":4.435248851776123,"16":0.9468557834625244,"17":-0.44130653142929077,"18":0.42722195386886597,"19":1.2195261716842651,"20":1.2885334491729736,"21":3.665830373764038,"22":-0.962563693523407,"23":1.2759689092636108,"24":-1.1821943521499634,"25":0.22565965354442596,"26":-1.8025858402252197,"27":-0.22353185713291168,"28":0.7891468405723572,"29":-0.9499045014381409,"30":1.7543689012527466,"31":1.586094617843628,"32":1.3904989957809448,"33":2.479137897491455,"34":-6.088833332061768,"35":-0.13807927072048187,"36":1.2456152439117432,"37":-0.4182915687561035,"38":2.133418321609497,"39":2.1289374828338623,"40":3.5711967945098877,"41":0.7287531495094299,"42":3.0768473148345947,"43":-1.0671101808547974,"44":0.7732576131820679,"45":-0.27657386660575867,"46":-2.068405866622925,"47":-0.6657983064651489,"48":-0.7845394611358643,"49":-0.10241714119911194,"50":3.1174662113189697,"51":-1.6735280752182007,"52":-0.9478925466537476,"53":-1.492484450340271,"54":0.622345507144928,"55":-2.1748011112213135,"56":3.425137758255005,"57":3.309976100921631,"58":0.22048775851726532,"59":-0.807941198348999,"60":0.37836357951164246,"61":1.8767645359039307,"62":-1.136420726776123,"63":2.0012426376342773,"64":-1.4981440305709839,"65":0.3269231915473938,"66":-0.3616596758365631,"67":1.4423120021820068,"68":-0.9112727642059326,"69":0.2627243399620056,"70":-0.6412677764892578,"71":1.9733301401138306,"72":-0.9777331948280334,"73":2.7315375804901123,"74":4.207765579223633,"75":0.47481197118759155,"76":0.9827568531036377,"77":-0.08501189202070236,"78":1.599487066268921,"79":0.5571898818016052,"80":-1.1669676303863525,"81":2.536618709564209,"82":-1.5500675439834595,"83":-1.0382591485977173,"84":-2.564277172088623,"85":-0.5365152955055237,"86":1.3742330074310303,"87":-1.3436051607131958,"88":2.0125577449798584,"89":-1.583045244216919,"90":3.145676851272583,"91":1.6859105825424194,"92":1.4328933954238892,"93":0.29689130187034607,"94":-1.292697548866272,"95":-1.727060079574585,"96":-0.7998668551445007,"97":-0.1935988962650299,"98":-0.7756203413009644,"99":1.6833388805389404,"100":1.9017547369003296,"101":-0.2046780288219452,"102":-0.985035240650177,"103":1.1419458389282227,"104":-0.7168015837669373,"105":-1.7153546810150146,"106":-1.065874695777893,"107":1.7782303094863892,"108":1.562777042388916,"109":2.215916872024536,"110":-1.1957005262374878,"111":2.399456262588501,"112":3.3459014892578125,"113":1.8357049226760864,"114":-2.1441521644592285,"115":0.3940010964870453,"116":1.9352736473083496,"117":0.7718617916107178,"118":0.8843562602996826,"119":0.7353301048278809,"120":2.2892539501190186,"121":0.4898169934749603,"122":-0.7233918905258179,"123":1.9538146257400513,"124":1.552914023399353,"125":-0.502032458782196,"126":-1.4001322984695435,"127":-4.251645565032959,"128":-3.308228015899658,"129":2.313680410385132,"130":-1.6546945571899414,"131":0.06124817579984665,"132":-0.6708043217658997,"133":-1.6771538257598877,"134":5.141035556793213,"135":-1.1743401288986206,"136":1.598285436630249,"137":-2.952310800552368,"138":0.7947205305099487,"139":-0.8402284979820251,"140":0.7567440271377563,"141":0.4563067555427551,"142":-0.3574278950691223,"143":-0.8063498139381409,"144":-0.4999585449695587,"145":1.33628511428833,"146":-0.35921332240104675,"147":0.5396755933761597,"148":0.6748931407928467,"149":0.5457868576049805,"150":1.2079432010650635,"151":0.7733351588249207,"152":0.014779077842831612,"153":0.33579784631729126,"154":-1.1882928609848022,"155":0.4760124683380127,"156":-0.6853330135345459,"157":0.20642803609371185,"158":0.04365171119570732,"159":0.9603225588798523,"160":-0.36777693033218384,"161":0.7034316062927246,"162":0.8470801711082458,"163":-2.4385392665863037,"164":-1.4052884578704834,"165":1.137502908706665,"166":2.980166435241699,"167":-2.1057381629943848,"168":1.7997984886169434,"169":-0.637915849685669,"170":-0.15327070653438568,"171":0.9660964608192444,"172":1.1875642538070679,"173":-2.7218973636627197,"174":-4.0157270431518555,"175":-2.502822160720825,"176":1.3057457208633423,"177":0.8586930632591248,"178":-0.7916001677513123,"179":3.053018808364868,"180":0.6799450516700745,"181":2.3734395503997803,"182":-4.217483997344971,"183":-0.8037050366401672,"184":-0.21355420351028442,"185":4.376061916351318,"186":-0.04894920811057091,"187":-5.537006855010986,"188":-2.629241704940796,"189":0.5884561538696289,"190":2.4381656646728516,"191":0.24377383291721344,"192":0.7577440738677979,"193":-3.611778974533081,"194":0.7858004570007324,"195":0.5475466847419739,"196":1.1054296493530273,"197":0.19242557883262634,"198":-2.5565948486328125,"199":-0.443595826625824,"200":0.4294104278087616,"201":0.44060856103897095,"202":0.1896103471517563,"203":0.6253988742828369,"204":0.40752601623535156,"205":-0.26323428750038147,"206":0.11009114235639572,"207":0.23338602483272552,"208":1.1142698526382446,"209":-0.43860816955566406,"210":-0.20817019045352936,"211":-2.221554756164551,"212":-2.540968418121338,"213":1.6519993543624878,"214":0.46174317598342896,"215":1.0092777013778687,"216":0.5079536437988281,"217":0.1216680109500885,"218":-0.37952715158462524,"219":-0.6565217971801758,"220":1.6612257957458496,"221":-1.2833266258239746,"222":-2.3873703479766846,"223":-0.6383159160614014,"224":-2.5343666076660156,"225":5.949043273925781,"226":-0.2770933508872986,"227":2.8123319149017334,"228":6.030619144439697,"229":0.6877350807189941,"230":-0.04407313093543053,"231":2.1377012729644775,"232":4.739828586578369,"233":-2.2294583320617676,"234":-0.8616229891777039,"235":-1.7020976543426514,"236":0.7282785773277283,"237":2.749804735183716,"238":0.3872530162334442,"239":1.922013759613037,"240":0.8172376155853271,"241":1.956904411315918,"242":2.3618104457855225,"243":1.5095751285552979,"244":0.05745328590273857,"245":0.5117221474647522,"246":2.6326534748077393,"247":1.4897749423980713,"248":3.669966697692871,"249":-2.7407443523406982,"250":0.660789430141449,"251":-0.10247306525707245,"252":0.28454267978668213,"253":2.0868444442749023,"254":4.6142191886901855,"255":1.0967952013015747,"256":1.064925193786621,"257":-0.31172069907188416,"258":-0.2739073932170868,"259":2.67083477973938,"260":-1.3481228351593018,"261":-0.19001203775405884,"262":0.12432998418807983,"263":1.2824177742004395,"264":0.7006415128707886,"265":-2.185655117034912,"266":1.6312259435653687,"267":3.7127037048339844,"268":-0.2673618197441101,"269":2.2960033416748047,"270":-1.9982776641845703,"271":1.7873613834381104,"272":-2.4118127822875977,"273":-0.5182589888572693,"274":3.7135300636291504,"275":0.5994009375572205,"276":1.6614948511123657,"277":0.5418742895126343,"278":1.699783444404602,"279":-1.413590669631958,"280":0.195138618350029,"281":-4.551008224487305,"282":-1.877537488937378,"283":0.2522435486316681,"284":-0.753363847732544,"285":-0.473824143409729,"286":-0.1276562660932541,"287":2.0633716583251953,"288":1.2280354499816895,"289":0.10971000790596008,"290":0.8499668836593628,"291":-0.8140897750854492,"292":1.5849512815475464,"293":-0.534280002117157,"294":-0.2672220468521118,"295":-0.4254480302333832,"296":-0.9990823864936829,"297":-0.4490770697593689,"298":-1.336604356765747,"299":0.44720780849456787,"300":2.5553340911865234,"301":-0.050956401973962784,"302":-0.03418764844536781,"303":-2.2568559646606445,"304":-1.5159543752670288,"305":2.701901435852051,"306":2.7451045513153076,"307":-4.313802242279053,"308":3.4352846145629883,"309":1.8318347930908203,"310":0.4769085645675659,"311":0.6135038137435913,"312":0.3036018908023834,"313":-2.941255569458008,"314":-0.9355190992355347,"315":-1.7526575326919556,"316":3.7409980297088623,"317":1.076709270477295,"318":0.6428514122962952,"319":2.471125841140747,"320":1.4069395065307617,"321":1.7907187938690186,"322":3.1525895595550537,"323":-0.35351264476776123,"324":1.8102842569351196,"325":3.1625897884368896,"326":1.8426897525787354,"327":-0.5805339813232422,"328":2.578291654586792,"329":1.6949492692947388,"330":5.586431980133057,"331":-2.5782370567321777,"332":-1.7739075422286987,"333":-2.3174710273742676,"334":-1.788040041923523,"335":-0.27736973762512207,"336":0.8375781774520874,"337":-2.545233964920044,"338":-3.6694722175598145,"339":-0.9127911329269409,"340":3.450418472290039,"341":0.36450159549713135,"342":-3.728468894958496,"343":-1.4098492860794067,"344":-1.6327375173568726,"345":1.8167312145233154,"346":1.9474492073059082,"347":1.4041271209716797,"348":2.7682442665100098,"349":-1.5727821588516235,"350":0.3362513482570648,"351":1.2880804538726807,"352":3.8484418392181396,"353":-0.44140127301216125,"354":-2.591118812561035,"355":6.876923561096191,"356":-4.806943893432617,"357":-0.9948214888572693,"358":-0.34683334827423096,"359":2.559523820877075,"360":0.24384000897407532,"361":0.5376257300376892,"362":0.8174256682395935,"363":0.4439772963523865,"364":-0.890588104724884,"365":3.928377151489258,"366":1.7734891176223755,"367":-1.4739049673080444,"368":-2.739192247390747,"369":-3.2967729568481445,"370":0.8351661562919617,"371":1.0764750242233276,"372":-1.2802879810333252,"373":-0.0670265331864357,"374":-0.5537928342819214,"375":-0.09543775022029877,"376":2.0776491165161133,"377":0.36611345410346985,"378":-1.2576823234558105,"379":-0.7747783660888672,"380":1.9392106533050537,"381":0.15376128256320953,"382":0.43394705653190613,"383":-2.244293451309204,"384":0.9132735729217529,"385":0.4355093836784363,"386":-2.1217260360717773,"387":1.775280237197876,"388":-0.8634823560714722,"389":0.7966976761817932,"390":4.397915363311768,"391":-1.4763227701187134,"392":-0.5794358849525452,"393":-0.4047206938266754,"394":1.4320180416107178,"395":-2.021500825881958,"396":-3.8994038105010986,"397":1.9246972799301147,"398":1.3516607284545898,"399":-0.687680721282959}},"forgetBias":{"rows":20,"columns":1,"weights":{"0":0,"1":0,"2":0,"3":0,"4":0,"5":0,"6":0,"7":0,"8":0,"9":0,"10":0,"11":0,"12":0,"13":0,"14":0,"15":0,"16":0,"17":0,"18":0,"19":0}},"outputMatrix":{"rows":20,"columns":33,"weights":{"0":-0.9229795932769775,"1":1.6916576623916626,"2":-0.3294830024242401,"3":-0.7459502220153809,"4":0.23382839560508728,"5":1.6063262224197388,"6":0.7222353219985962,"7":0.2711714208126068,"8":-1.3125171661376953,"9":0.711376965045929,"10":-1.3319177627563477,"11":-1.094103455543518,"12":0.7281103730201721,"13":2.044381618499756,"14":-0.35479265451431274,"15":0.4522666931152344,"16":-0.3642001450061798,"17":0.09194177389144897,"18":-1.5773189067840576,"19":0.9971771836280823,"20":0.6724481582641602,"21":-0.6438227891921997,"22":-0.6274796724319458,"23":1.0778422355651855,"24":-0.696056604385376,"25":0.10837295651435852,"26":0.029368534684181213,"27":-1.5412979125976562,"28":-1.4573248624801636,"29":2.2952282428741455,"30":2.6369102001190186,"31":-0.3150453269481659,"32":1.5368127822875977,"33":0.6197219491004944,"34":0.15922032296657562,"35":0.0964253842830658,"36":0.13691112399101257,"37":-1.9734021425247192,"38":0.16738328337669373,"39":0.22133049368858337,"40":0.8149915933609009,"41":-0.09612053632736206,"42":-1.6140037775039673,"43":-1.6030889749526978,"44":-0.05557604134082794,"45":0.4120261073112488,"46":-0.8890078067779541,"47":0.7006198763847351,"48":0.1332419365644455,"49":-0.08698011934757233,"50":0.7713460922241211,"51":-0.0955611988902092,"52":0.24950695037841797,"53":0.44987615942955017,"54":-1.5072015523910522,"55":-0.7414734363555908,"56":1.34534752368927,"57":-0.27960819005966187,"58":0.1890886276960373,"59":-0.25020548701286316,"60":-0.9461544156074524,"61":1.0382472276687622,"62":1.8480178117752075,"63":-0.12386498600244522,"64":0.3989282250404358,"65":1.7002878189086914,"66":-0.2805456519126892,"67":-0.10003203898668289,"68":-0.5256847143173218,"69":0.47783163189888,"70":2.775329828262329,"71":0.05538910999894142,"72":1.1106011867523193,"73":-0.48083266615867615,"74":0.25579822063446045,"75":2.23978590965271,"76":1.837237000465393,"77":0.14805835485458374,"78":0.3353165090084076,"79":0.3699105679988861,"80":-0.8490138053894043,"81":-0.2607381343841553,"82":0.2866246700286865,"83":-2.062654972076416,"84":-0.23739638924598694,"85":-0.5309893488883972,"86":0.493129163980484,"87":0.8705900311470032,"88":0.6408933997154236,"89":-0.41412246227264404,"90":1.2370142936706543,"91":0.8213579058647156,"92":1.8181188106536865,"93":0.08024889975786209,"94":-1.153136134147644,"95":-0.16261593997478485,"96":0.9708936214447021,"97":0.1328834891319275,"98":0.4174115061759949,"99":-0.28612852096557617,"100":0.15913112461566925,"101":2.4133243560791016,"102":-0.8978828191757202,"103":0.8451104164123535,"104":-1.7988150119781494,"105":-0.9733635783195496,"106":0.05226891487836838,"107":1.7232338190078735,"108":-1.8541368246078491,"109":-0.3576664924621582,"110":0.01849265955388546,"111":-2.1240363121032715,"112":-1.0201066732406616,"113":0.10268281400203705,"114":0.4146868884563446,"115":-0.8158323168754578,"116":-0.09046860039234161,"117":1.0810530185699463,"118":-0.3907770812511444,"119":-0.9305435419082642,"120":-0.9740625619888306,"121":-0.5750162601470947,"122":1.5334891080856323,"123":-2.212461471557617,"124":-1.119615077972412,"125":0.43051600456237793,"126":0.36286088824272156,"127":1.2983274459838867,"128":-0.8006136417388916,"129":-2.997468948364258,"130":2.035209894180298,"131":-1.4115965366363525,"132":-0.5339822173118591,"133":1.9745113849639893,"134":-1.0245838165283203,"135":-0.6015484929084778,"136":0.8519410490989685,"137":-0.0297738928347826,"138":0.6854667663574219,"139":-0.8282650709152222,"140":-0.9277830123901367,"141":-0.28321996331214905,"142":0.6763293147087097,"143":-0.45819392800331116,"144":0.9464300870895386,"145":-0.7144818902015686,"146":0.08129614591598511,"147":-0.6445080041885376,"148":-0.9466031193733215,"149":-0.8543105125427246,"150":0.03313049301505089,"151":-0.3135046064853668,"152":-0.06921612471342087,"153":-0.8837466835975647,"154":1.708268642425537,"155":-0.6098723411560059,"156":-0.690919041633606,"157":1.0834301710128784,"158":1.7164219617843628,"159":0.3204681873321533,"160":0.30749747157096863,"161":0.9310846924781799,"162":1.6761349439620972,"163":0.23280586302280426,"164":-0.005471051204949617,"165":1.9451924562454224,"166":-0.9673702120780945,"167":-0.6027017831802368,"168":-1.0168355703353882,"169":-0.686977207660675,"170":-0.09558456391096115,"171":-1.8183213472366333,"172":0.709382176399231,"173":-0.5780730843544006,"174":-0.7999911308288574,"175":0.2356799691915512,"176":0.054665543138980865,"177":-0.8380246162414551,"178":-0.6338074803352356,"179":0.15186716616153717,"180":0.5869606733322144,"181":-2.852832555770874,"182":2.2037084102630615,"183":-0.7180747389793396,"184":0.6999796032905579,"185":-0.8202658295631409,"186":-1.271944522857666,"187":-1.4063752889633179,"188":1.469119906425476,"189":-0.6467174291610718,"190":-2.484872579574585,"191":-0.644646167755127,"192":-0.07369797676801682,"193":0.44077324867248535,"194":-0.1490393728017807,"195":-0.059597503393888474,"196":-0.6621346473693848,"197":1.8067076206207275,"198":-1.4965786933898926,"199":-0.4474528729915619,"200":2.3862922191619873,"201":0.19114750623703003,"202":-0.06706724315881729,"203":0.4603469967842102,"204":-0.8942800760269165,"205":1.2728271484375,"206":-0.22068001329898834,"207":0.727527379989624,"208":0.06872507184743881,"209":-0.07287604361772537,"210":0.35532814264297485,"211":1.0333727598190308,"212":0.9071319103240967,"213":-0.7655878663063049,"214":-0.8853543996810913,"215":-1.2053370475769043,"216":-0.5825378894805908,"217":0.2975122928619385,"218":0.8604905009269714,"219":-0.5012553334236145,"220":-1.8678356409072876,"221":0.095743328332901,"222":1.7541396617889404,"223":0.37461256980895996,"224":0.9863166213035583,"225":0.4398098289966583,"226":-3.6808488368988037,"227":-0.5579717755317688,"228":1.3710920810699463,"229":2.156456708908081,"230":2.1962854862213135,"231":-1.204060673713684,"232":0.7392269372940063,"233":-1.4820889234542847,"234":-2.1222147941589355,"235":0.31459811329841614,"236":-0.8276516199111938,"237":1.539891242980957,"238":-0.06591914594173431,"239":0.15648888051509857,"240":0.8196446895599365,"241":0.9477981328964233,"242":-0.04924657568335533,"243":-2.005484104156494,"244":-0.310478150844574,"245":-0.06571245193481445,"246":0.33479419350624084,"247":-3.098114013671875,"248":-0.5951383113861084,"249":-0.526070237159729,"250":1.0827057361602783,"251":-0.7524577975273132,"252":-0.010857446119189262,"253":0.5315793752670288,"254":0.014806462451815605,"255":0.3307834565639496,"256":0.0627298504114151,"257":3.45819354057312,"258":-0.2132543921470642,"259":0.17260128259658813,"260":1.5874336957931519,"261":0.388296902179718,"262":-0.72352135181427,"263":-0.4690040946006775,"264":0.180115208029747,"265":-0.14226515591144562,"266":-2.109618902206421,"267":0.6630414128303528,"268":0.903429388999939,"269":-0.9518245458602905,"270":-0.9237366318702698,"271":0.408256471157074,"272":0.06831686943769455,"273":2.73099684715271,"274":-0.39167240262031555,"275":0.871616542339325,"276":-0.462106317281723,"277":-0.5189610719680786,"278":-0.9442551732063293,"279":0.5747340321540833,"280":-0.32341060042381287,"281":-0.14646212756633759,"282":0.5989968180656433,"283":0.09994275867938995,"284":-0.2997860014438629,"285":0.37498942017555237,"286":1.6488171815872192,"287":-1.3566744327545166,"288":1.4119445085525513,"289":0.8267435431480408,"290":2.3310580253601074,"291":1.251387357711792,"292":-0.5605403780937195,"293":-1.3776986598968506,"294":-0.8814782500267029,"295":-0.14754681289196014,"296":-1.7639923095703125,"297":0.9292268753051758,"298":-0.4081103801727295,"299":1.7200418710708618,"300":1.9908530712127686,"301":0.10813412070274353,"302":-0.717848539352417,"303":0.5658791065216064,"304":0.6606453061103821,"305":2.0824975967407227,"306":-0.8232219219207764,"307":-2.0081472396850586,"308":0.2638647258281708,"309":-0.4940468668937683,"310":-0.21177427470684052,"311":-0.49286404252052307,"312":0.3739611506462097,"313":-0.1542443037033081,"314":-0.4162070155143738,"315":-0.02658926695585251,"316":-0.7749858498573303,"317":0.33367568254470825,"318":-1.7536070346832275,"319":0.269379585981369,"320":-0.17566578090190887,"321":0.823434591293335,"322":-0.07877237349748611,"323":1.726844310760498,"324":0.5295094847679138,"325":-2.1419336795806885,"326":0.13045339286327362,"327":1.4359033107757568,"328":0.13612808287143707,"329":-0.42263686656951904,"330":-0.3708171844482422,"331":0.3457961678504944,"332":1.1230837106704712,"333":-0.19519810378551483,"334":0.34838739037513733,"335":-0.2547919750213623,"336":-0.8003353476524353,"337":0.5109173059463501,"338":0.7473061084747314,"339":-1.227014422416687,"340":1.2167086601257324,"341":0.23071184754371643,"342":0.03188939392566681,"343":0.4579311013221741,"344":-0.052406106144189835,"345":-0.317624032497406,"346":0.026300251483917236,"347":-0.0465393103659153,"348":-1.1513539552688599,"349":1.157789945602417,"350":0.36809906363487244,"351":0.29656410217285156,"352":0.05203069746494293,"353":-0.30392569303512573,"354":0.04412398114800453,"355":0.041651297360658646,"356":0.5253031253814697,"357":0.15540766716003418,"358":-0.09093134105205536,"359":0.582234263420105,"360":0.8881210684776306,"361":1.5208826065063477,"362":0.9039785861968994,"363":-0.4347427487373352,"364":1.3305178880691528,"365":-2.479752540588379,"366":0.14731921255588531,"367":0.0775473490357399,"368":-0.1923254430294037,"369":1.8889671564102173,"370":-0.24983897805213928,"371":0.7569500207901001,"372":1.2454028129577637,"373":0.5433235764503479,"374":-0.08145212382078171,"375":-0.02975444309413433,"376":-0.36588022112846375,"377":-0.4244263768196106,"378":-0.23198363184928894,"379":0.03123115934431553,"380":0.10227279365062714,"381":0.34913498163223267,"382":-0.40974053740501404,"383":0.36633121967315674,"384":-1.0693581104278564,"385":1.2729723453521729,"386":-0.447945773601532,"387":-0.9265943765640259,"388":1.3486977815628052,"389":0.8069882392883301,"390":0.11127882450819016,"391":1.0089529752731323,"392":-0.4120723307132721,"393":0.9402757287025452,"394":0.24174676835536957,"395":0.0733722671866417,"396":0.4234524667263031,"397":0.5211803317070007,"398":-0.33941638469696045,"399":-0.38180965185165405,"400":0.03591649606823921,"401":1.0732831954956055,"402":0.17978863418102264,"403":0.8817296028137207,"404":-0.7922117114067078,"405":1.214913010597229,"406":-1.172190546989441,"407":-0.2358679622411728,"408":0.08102990686893463,"409":0.09315923601388931,"410":0.856144368648529,"411":0.5981001257896423,"412":0.01066754199564457,"413":-0.38581761717796326,"414":-0.7705082893371582,"415":0.6516941785812378,"416":-0.23126958310604095,"417":1.7530521154403687,"418":-0.7454146146774292,"419":0.2872267961502075,"420":1.375944972038269,"421":0.1652447134256363,"422":0.10778714716434479,"423":-0.07637819647789001,"424":-0.8440195918083191,"425":1.3385672569274902,"426":1.427140712738037,"427":1.9623425006866455,"428":1.2489972114562988,"429":1.3151191473007202,"430":1.1732709407806396,"431":-1.9601945877075195,"432":0.5217813849449158,"433":-2.0701828002929688,"434":-1.096767544746399,"435":0.9788403511047363,"436":0.8071539998054504,"437":-1.403475046157837,"438":0.6450056433677673,"439":0.47724127769470215,"440":0.6198589205741882,"441":0.6603948473930359,"442":0.48640140891075134,"443":-0.00727844936773181,"444":0.8518045544624329,"445":-0.6727880239486694,"446":-0.4357539415359497,"447":-1.6886101961135864,"448":2.256868362426758,"449":0.31709668040275574,"450":-0.1703069657087326,"451":-0.5328545570373535,"452":1.6931813955307007,"453":1.3623161315917969,"454":1.9316173791885376,"455":1.5070489645004272,"456":-0.22138512134552002,"457":0.5618935823440552,"458":1.4775110483169556,"459":1.405523419380188,"460":-0.21203897893428802,"461":2.0498299598693848,"462":-0.012020888738334179,"463":1.1747756004333496,"464":0.5347487926483154,"465":-0.4482766389846802,"466":0.5716407299041748,"467":0.09658563882112503,"468":-0.23913270235061646,"469":-0.8592351078987122,"470":0.4280369281768799,"471":-0.25869977474212646,"472":0.6655235290527344,"473":-0.238603875041008,"474":-1.5153542757034302,"475":0.00004681253994931467,"476":0.7130870819091797,"477":-0.8193337321281433,"478":-0.14065563678741455,"479":-0.9239911437034607,"480":0.5164015293121338,"481":0.07673060148954391,"482":0.11174207925796509,"483":-0.2277507781982422,"484":0.5020328164100647,"485":0.19727227091789246,"486":-0.40294191241264343,"487":0.3679084777832031,"488":0.597949743270874,"489":-0.12307199090719223,"490":-0.16133567690849304,"491":-0.3414088189601898,"492":-0.328373521566391,"493":1.0227347612380981,"494":-0.09300151467323303,"495":0.4728102684020996,"496":-0.6984376311302185,"497":1.394376277923584,"498":0.7011088728904724,"499":-0.32978904247283936,"500":0.4716987609863281,"501":-0.813275158405304,"502":-0.050577931106090546,"503":0.5350068211555481,"504":-0.35284146666526794,"505":-0.977687418460846,"506":-0.08798913657665253,"507":0.7371353507041931,"508":-0.5098950266838074,"509":0.8174037337303162,"510":0.008060543797910213,"511":-0.0100308982655406,"512":-0.5389975905418396,"513":-0.008667984046041965,"514":-0.20243780314922333,"515":0.7253832817077637,"516":-0.11058593541383743,"517":-0.25672218203544617,"518":0.3197686970233917,"519":0.8300750851631165,"520":0.4092256724834442,"521":0.48519936203956604,"522":0.6223917007446289,"523":-2.605483055114746,"524":0.09404120594263077,"525":0.7987080812454224,"526":-0.24054692685604095,"527":-0.015536838211119175,"528":0.9899576902389526,"529":1.0719263553619385,"530":-0.0037561752833426,"531":1.7482646703720093,"532":-0.028557419776916504,"533":-0.11355512589216232,"534":4.565724849700928,"535":1.9477595090866089,"536":-2.8865785598754883,"537":0.1333651840686798,"538":0.18022915720939636,"539":-0.2471499890089035,"540":-0.7641853094100952,"541":0.3236504793167114,"542":-1.5274485349655151,"543":-1.0493305921554565,"544":-0.6170862913131714,"545":-0.2972352206707001,"546":0.050305742770433426,"547":-0.5690444707870483,"548":1.9766688346862793,"549":1.6234829425811768,"550":0.5279147028923035,"551":-1.2233643531799316,"552":1.9612172842025757,"553":0.6564816236495972,"554":2.0526256561279297,"555":-0.6727785468101501,"556":0.8587527275085449,"557":2.295644760131836,"558":1.0347260236740112,"559":-0.2869006395339966,"560":-0.0430934838950634,"561":-0.8444125056266785,"562":-0.2377147525548935,"563":0.5492205619812012,"564":0.12530216574668884,"565":0.7677716016769409,"566":-0.20993687212467194,"567":0.7933548092842102,"568":0.774889349937439,"569":0.9652851223945618,"570":-0.6234511137008667,"571":0.4535132050514221,"572":0.22835218906402588,"573":-0.22039736807346344,"574":0.027066083624958992,"575":0.8978751301765442,